4.235335855475479204e-04 -1.988240814419475200e-01 -5.144219885360772071e-02 -1.729372492887624665e-02 -3.281401970075554786e-01 1.181937080798584894e-01 -2.843647358985139095e-01 -1.306023387814983505e-01 -1.849604965434338277e-01 2.374991321800645067e-02 3.157372563127635590e-01 4.016653400777874805e-01 -1.344936784592156154e-01 6.965678968230031298e-01 -2.698540887359384133e-01 -2.296078100483409379e-01 7.664787610410941920e-02 -2.113288151866253572e-01 -1.674988722099361449e-01 2.289154997220400889e-02 -1.340129792626511829e-01 5.378235061619111856e-02 -1.918651844279455343e-01 1.309722458746483409e-01 -4.279971737339377524e-01 -9.367118451522536693e-02 4.302775379676435086e-02 -6.000132489077588671e-01 -1.079979906357397476e-02 -5.844340886754855607e-02 1.373217038838226434e-01 -7.358943725927670487e-02 4.618070896790624560e-03 5.892766904054033000e-02 -3.612400843793196481e-01 2.817953989361930422e-01 -2.661726326202216164e-01 -3.538908444150611760e-02 -9.515155579980753842e-02 -5.086037361305140170e-01 4.452923946051737941e-03 -4.945383757683255443e-01 6.316934271796283140e-02 1.969766102143398478e-01 7.734727107308247973e-02 5.378726214255601795e-02 -8.145415007889383885e-02 -1.947053582681084749e-01 1.030467931474045862e-01 -1.163650457483057926e-01 -2.898945119631947676e-01 3.362206268792143904e-01 1.663779679168394254e-01 -1.149409105489631044e-01 -4.397680098574976992e-01 7.472155160375877347e-01 -2.393810863932556987e-01 -7.933691754489038961e-02 3.955214279144596556e-01 1.495239163814976457e-01 -4.372357985328677588e-01 -8.499922515408826762e-03 -1.352733825268001011e-01 3.277342310268603343e-01 -4.151229920955737951e-01 -4.409027085453256500e-01 -5.545739513671002485e-02 -1.639341748411975719e-01 -2.738936293061436378e-01 3.130300068958170034e-01 1.680045907847247666e-01 1.936544613239109258e-01 2.564025312226045003e-02 9.847790707022874290e-02 1.020080198956363621e-01 -6.615999466647055210e-03 -4.455045532850782086e-02 -3.698327070406660089e-01 -6.078395280329439154e-02 1.555067439453988176e-01 4.745080837815833508e-02 -1.137771754501171184e-01 -1.114613037809136266e-02 5.220696562915438932e-02 6.036596050433936655e-01 -2.538975803159169709e-01 -3.838236885457938508e-01 -1.973585505760613590e-01 1.850074507817053293e-01 -7.337727491984066264e-01 -4.175512167491755577e-01 2.183949032153176539e-01 4.818044511840348376e-02 -1.866632440120274128e-01 5.112676648329462781e-01 3.113297182600829327e-01 2.858077818398480074e-01 2.454951292718826894e-01 -1.818564873197472953e-01 -2.521717672912522912e-01 1.323877477196847841e-01 -3.260810615134840384e-01 2.601186934061750378e-03 2.634511181408355496e-01 -1.071212371468511920e-01 5.879054948504187916e-02 2.912128862807326080e-01 -2.364844756461260133e-01 -1.029560452205921933e-01 -4.727315387333046459e-01 -1.728114705477347135e-01 -1.252513208208045625e-01 -2.466682391380480566e-01 -5.182468298607279672e-02 -1.037500620959381364e-01 -3.256805373751610611e-01 -1.249502648873224292e-01 3.631584321529974374e-02 1.460601378000414563e-01 1.413790165756680789e-02 4.311370522556776663e-01 -2.172516764785736298e-01 2.919206256715540238e-01 -5.692180668756229300e-01 -5.323650304613949391e-01 -5.726062432292732263e-01 -5.892737911955234220e-02 1.911974948653766826e-01 -7.565729493426159857e-02 -8.683427693081526705e-03 1.021559571353974627e-01 -9.442552454928183903e-02 -6.190248613056179572e-01 -3.232899233673050543e-01 1.000548334708934034e-01 6.948586047187306214e-01 2.306459910702080562e-01 2.988731018886329749e-01 4.734783129022698822e-01 3.280420942035877085e-01 4.993313573717709786e-01 -3.681626902837353277e-01 -2.550612658306514735e-01 9.361486016521822773e-01 6.870395742139413786e-03 9.196766563397686944e-01 8.824137051652520825e-01 -1.728583937121427536e-02 6.649836387445602626e-02 -1.658543111826022431e-01 8.888922097127270605e-02 -2.676471339708564878e-01 3.645195283578116924e-02 5.887622346449838256e-02 4.468762619778643419e-01 5.852511005557371748e-03 -2.851488500463281867e-02 3.375831868144317238e-01 8.010709044147483471e-02 -8.143203206381222081e-02 -4.405648846831802246e-01 1.713706157717226897e-01 -1.920784858237951660e-03 5.311546412983001453e-01 -1.165852616645134954e-01 2.098973894603498036e-01 2.645203516446239522e-01 3.752197506892863271e-02 1.677592477769989932e-01 -2.085911962645912165e-01 -2.298614294968118980e-03 1.917289413444736579e-01 4.916537380443212202e-01 -1.355565221168893164e-01 1.793699024095988803e-01 -1.341673971923632303e-01 1.597795113680195722e-01 3.037471784240763917e-01 7.390078412583229728e-01 3.695558254355605365e-01 5.580918656067949957e-02 -1.124956335743768632e-01 1.093007981748755630e-01 -1.916624086649970637e-01 -4.401667530865769340e-01 -6.634953120383229042e-01 9.885966514759553236e-02 5.306676447234781602e-01 -9.507890794645070809e-01 -2.006440294159401172e-01 -9.232068111269710331e-02 9.134368284874813670e-02 -4.181415286091811345e-01 4.296763502550342562e-01 -1.546297854604855582e-01 -4.093747163920478660e-01 -1.229596992803619615e-01 3.787331840418778350e-01 -3.121032114832127391e-01 2.901646704772146701e-01 2.269327214528539249e-01 -5.191758630470262315e-01 3.584705000201480751e-01 6.923383069104647181e-01 1.989937339639426261e-01 6.394651088775844539e-01 4.336863725339266951e-02 -3.605365752579017813e-01 1.611331534896673079e-01 -1.364273150597801465e-01 -2.149876591880234000e-01 -4.454460770821686011e-01 -4.206654105405572830e-01 -1.620637058906681249e-01 4.795031545637661319e-01 -8.750242815558513521e-02 -6.287125322574832476e-02 -2.732310696319486532e-01 9.416308971299243158e-01 4.520565633590213905e-01 -3.240117902856247123e-01 1.624996105491008716e-02 1.793824072382427248e-01 2.071367171525226036e-01 -6.211827157934124433e-02 3.437794565555513104e-02 -4.187133915449367527e-01 -1.972103056821551403e-01 4.464279846879364300e-01 1.094892492551230168e-01 -1.722282330122096028e-01 -1.741127479252377874e-01 9.850930798303496327e-02 4.021648773437507263e-01 -1.054482180026314608e-01 7.574930243262918417e-01 -2.189524170981074214e-01 1.116678620932649579e-01 -2.862910533819574277e-01 -1.240771381093699333e-01 5.907364355313642068e-02 5.737222795379623985e-01 3.745185881396217997e-02 7.843919865588764306e-01 4.451478839579237068e-02 7.464332599386624967e-01 -1.915852873000720435e-01 1.587728753961094030e-01 1.987045432917825261e-01 1.621852431212528478e-01 -2.263919629850603688e-01 -1.399785004447245129e-01 -3.328867811714290026e-01 -4.423805466510462303e-02 1.463635112935806060e-01 3.503954632757212972e-01 9.474625354723498205e-01 -1.409910796506639863e-01 7.269377064800441879e-01 -4.806236677422873194e-01 -4.901189549278359148e-02 -3.940825291184307799e-01 -1.170600930771640846e-01 1.607056232320449446e-02 -5.618044792561165401e-01 3.052132823594235767e-01 -6.232164147640251173e-02 -1.968821113369996767e-01 9.944997914680715478e-01 -3.258791591587752445e-01 -4.110804253984564616e-01 1.802498563642197515e-01 3.191747232313649763e-01 8.454036066245023129e-01 9.447457019809893386e-02 2.956299219957557803e-02 -2.163578903252282304e-01 2.047736397839187428e-01 -6.634987368903000338e-02 1.027905135683685328e-01 -2.615734204056778811e-01 -8.085063829094825127e-01 -2.073454150101262383e-01 -8.762276825886340659e-02 7.232070288413439130e-03 2.865393614777440034e-01 2.216315666231373216e-01 3.261005297258069979e-01 4.046391462497973546e-01 -4.860746993955641360e-01 -1.986491130260478466e-01 1.436985782390236555e-01 -1.445384763767530167e-01 -3.788900026837905416e-02 4.105210985849516159e-01 1.306479602477828572e-01 -2.617469874464815049e-01 -4.089376373638985429e-01 5.675264390489578314e-01 3.430014183265054917e-01 7.305826595184686800e-01 -1.279588835539673120e-02 6.577922487054327361e-02 5.715890037828024184e-01 -2.611383504065485917e-01 -8.693571179569703489e-02 -3.791080862757867931e-01 -7.253284526343570238e-02 -4.346793339522171951e-01 -1.162298053134465520e-01 -4.431245262333354251e-01 -2.040756672754532597e-01 2.634748639014188321e-01 -1.081465163001174012e-01 7.685536083878665714e-01 -9.993271219910943026e-02 -6.185215771272462026e-02 3.657968811968369260e-02 8.930435130973697344e-01 -8.900260849299482246e-02 -1.854436756872150562e-03 -3.075399089002101016e-01 -4.656254046137729974e-01 -1.180609149044358902e-01 -2.899762564878063595e-02 1.110214789010567360e-01 2.171285132716408162e-01 1.611411038746108360e-01 2.000574096720653394e-01 -6.094862686394403317e-02 6.415507211147826461e-02 7.402809798399823116e-02 -1.604742432041077749e-01 -7.064608788540215067e-02 7.093022829806672203e-01 -5.781490715405293024e-01 -5.324946380436281768e-01 4.972484472417214030e-01 -5.228592999799552832e-01 8.021312621220979544e-01 4.450019729737144519e-02 1.997121648738263144e-01 -2.365713875470861205e-01 2.619541906412403143e-01 4.617953405813604584e-02 1.255919230549636390e-01 -3.527422129323036781e-01 -3.010980287679011422e-02 9.610895776467853757e-02 6.117815188445829833e-01 4.012544285651145071e-01 1.282812930708946142e-01 8.294647242152300426e-02 -1.116712597784679517e-01 -2.579844037524012812e-01 3.526464507855905234e-02 3.408237537389363636e-01 9.485733271760126151e-01 1.114534205236617920e-01 -1.551739122491829770e-01 8.505344518671347220e-01 1.292227458161925024e-02 -4.035975888943458267e-01 2.113537889722660046e-01 -2.084980716546483426e-01 -3.539741278171041478e-02 3.594458039038755937e-01 4.147235885369389141e-01 -2.698866411533858058e-03 2.334319510689523147e-01 1.458217079938522731e-01 -8.098184444950330685e-02 -1.160620775230147422e-01 2.456691185979154868e-01 3.955374667051509974e-01 -1.242932065586387080e-01 -3.353981600720623568e-01 -2.626622362653823275e-02 9.453347042191866112e-02 6.438613699217550501e-02 4.009910800641378059e-02 -4.472410681785031483e-02 1.977780042930097348e-01 -1.377534652314366392e-01 -1.257247878061081847e-01 -2.008597698256978092e-02 -1.666507929670572319e-01 6.728554055447788507e-01 1.310534508533004773e-02 2.137648256225177512e-02 -5.742496497304588887e-02 -2.941192516423296044e-01 -1.706939388915939548e-01 -2.320280723832237463e-02 1.941596940158330231e-01 -1.746025157528739366e-02 -1.319687091790562317e-01 -1.361108054088609742e-01 -3.918706341746748256e-01 2.186533979783385206e-01 -3.251499339146955436e-01 2.960726730975551391e-01 -1.417263729796977290e-01 -2.320055498194996662e-03 -1.426793891965399685e-01 1.669029557119429408e-02 3.486766399868742594e-01 2.957805848944668470e-01 2.996371435701047359e-01 9.565713488047064561e-02 -1.727443804895560653e-01 -1.165266665098674270e-01 3.037401579759033219e-03 3.934229377501115010e-01 1.105567506431671676e-01 -9.774048941230688570e-01 -1.526730319432865746e-01 5.797792826768808500e-02 -5.811876037249513738e-01 1.500428605393937798e-01
4.235335855475479204e-04 -1.988240814419475200e-01 -5.144219885360772071e-02 -1.729372492887624665e-02 -3.281401970075554786e-01 1.181937080798584894e-01 -2.843647358985139095e-01 2.962497208556993389e-01 2.799520166980891678e-01 -1.019957774026617886e-01 3.157372563127635590e-01 6.743510770991245629e-02 4.168823397856920576e-01 6.965678968230031298e-01 -2.678180514559328484e-01 -2.296078100483409379e-01 2.910529174709592173e-02 -2.113288151866253572e-01 2.887878839497569072e-01 -5.422987307050324002e-02 4.284226352887069433e-01 6.313325510722591627e-01 2.080980582544966206e-01 -4.174051233155675611e-01 2.507163236649086469e-01 -9.367118451522536693e-02 -4.560485181950444389e-01 -5.053938557243505825e-01 1.406984429998547892e-01 -2.833406346129725695e-03 -1.773578455595584691e-01 1.076764811846324665e-01 -4.169804661034059445e-01 -2.630341595113458095e-02 1.643944428777213140e-01 1.025110483362172420e-01 -1.188928624339382067e-01 -2.805303606015139839e-01 -9.515155579980753842e-02 6.272780833777805154e-02 4.452923946051737941e-03 2.185982860127996114e-02 6.316934271796283140e-02 1.969766102143398478e-01 7.734727107308247973e-02 3.059503730241698582e-02 -1.678773373985212869e-01 5.303166126608179626e-02 2.103053701291886235e-01 1.702118599334228877e-01 -2.898945119631947676e-01 2.741472006066843492e-01 -1.605667109478665366e-01 -1.511755731871109731e-01 -1.416157373987151635e-01 7.472155160375877347e-01 -5.061885695440334620e-01 -7.933691754489038961e-02 -1.949308881843598573e-01 1.590649664791023848e-02 -7.923695817570551581e-02 -8.499922515408826762e-03 -1.939121583025722045e-02 1.548606966866392402e-03 -4.151229920955737951e-01 -1.752252216160796183e-01 -5.545739513671002485e-02 -2.190519581360887980e-01 5.345378449930979908e-02 -2.968676264079709096e-02 -1.623921298513267275e-01 2.510692827853503450e-01 -4.058145388846378654e-01 -8.684981495255350570e-02 1.420515085315502413e-01 -6.615999466647055210e-03 1.027389722061480652e-02 -3.698327070406660089e-01 1.329434288632068938e-02 2.684844048953624052e-01 4.745080837815833508e-02 -5.701139764736560395e-02 3.356064253478996395e-01 1.551760274796896710e-01 -2.596178456064062931e-02 1.363096382162300169e-01 1.480612301404594100e-01 -1.973585505760613590e-01 1.850074507817053293e-01 -7.337727491984066264e-01 4.277367327571353628e-01 2.183949032153176539e-01 -3.754241021530099753e-01 -8.215543513278607268e-02 -1.006948102863258754e-01 3.113297182600829327e-01 1.695768094933944869e-01 4.944392795451545974e-01 -1.818564873197472953e-01 -3.864812405863141676e-01 -4.526035743093385078e-01 3.047583092754817535e-01 -3.337215727726915437e-01 2.634511181408355496e-01 -1.071212371468511920e-01 5.879054948504187916e-02 2.912128862807326080e-01 -2.364844756461260133e-01 -1.029560452205921933e-01 -4.727315387333046459e-01 -1.728114705477347135e-01 -1.252513208208045625e-01 -2.466682391380480566e-01 -5.182468298607279672e-02 -3.013399764161873162e-01 -3.983160201481793505e-01 -1.298215966792553855e-01 -1.168858758169010192e-01 -3.855980064960063403e-01 -1.012383289290735289e-01 -4.004219728307828463e-01 -2.172516764785736298e-01 -3.537895045525733806e-02 1.024283852790999760e-01 -8.572128906170771445e-02 -5.726062432292732263e-01 -1.871989214784152145e-01 -3.430916368861489651e-01 -1.529895697174492586e-01 -1.903457898173044061e-01 -4.262747909590002271e-01 -9.442552454928183903e-02 4.851559331663976016e-01 -7.002515248022682659e-01 -2.772748011779740951e-02 6.948586047187306214e-01 3.113278651662059748e-01 -1.796153838569963523e-01 -5.906671613389699593e-02 -2.557798431934532046e-01 -2.399112373753764516e-01 2.411229125003482021e-02 2.593563846064017575e-01 9.361486016521822773e-01 -1.883699610888390497e-01 9.196766563397686944e-01 8.824137051652520825e-01 2.187736390390523644e-01 -1.065075355042978122e-01 5.154629441396335610e-02 1.752195499853537175e-01 -3.405213657427889062e-01 3.645195283578116924e-02 5.887622346449838256e-02 4.468762619778643419e-01 1.387409988775579472e-01 -2.851488500463281867e-02 -1.096975496857139631e-01 2.905604904771993957e-01 -4.994563441235698731e-01 -2.206988317422084178e-01 5.587117761231713553e-01 1.723145964230802518e-01 5.311546412983001453e-01 3.628461750395562957e-01 1.322712660915378036e-01 -4.178621680641702030e-01 -1.056860166980963522e-01 -1.027820809938936736e-01 2.597362059019823755e-01 3.038621904446747735e-01 4.177968722794514478e-01 2.103278109925028061e-01 -2.104394645873296915e-02 -5.062819866269517577e-02 -1.692927642013324074e-01 -2.584921125965624067e-01 3.037471784240763917e-01 7.390078412583229728e-01 3.695558254355605365e-01 -3.127280807177306166e-01 1.237952261610467675e-01 1.093007981748755630e-01 -1.916624086649970637e-01 -3.817650835082277427e-01 -6.634953120383229042e-01 2.752224273310553970e-01 -5.765121818195011183e-02 -9.507890794645070809e-01 -2.006440294159401172e-01 -1.870379337446341217e-01 9.134368284874813670e-02 -4.807732631121265643e-02 4.296763502550342562e-01 2.397442641252792682e-03 -5.731331878700763882e-01 -2.945994575415370950e-02 3.787331840418778350e-01 -2.252975908335270727e-01 6.887336663813900528e-02 2.269327214528539249e-01 -1.763598420753165752e-01 -6.823945022597110999e-02 6.923383069104647181e-01 1.989937339639426261e-01 6.394651088775844539e-01 4.336863725339266951e-02 3.152699320212618561e-01 1.611331534896673079e-01 -1.862853996758673247e-01 6.740749396276791983e-02 8.692720526657876645e-02 2.139765354896418920e-02 9.169553822802904708e-02 -1.902282543041078633e-01 -3.816550594757265880e-01 1.380122360328539799e-01 -9.469242396917119942e-02 9.416308971299243158e-01 -1.224530957861005159e-01 -4.105397763188960852e-02 2.163072939820316967e-02 -5.301331962104602891e-01 1.469695617733512375e-03 9.143332319949921266e-03 1.281145091508403278e-01 -4.860528528969568218e-02 -2.494091926576516016e-01 2.643504691609097623e-01 1.462027368308297937e-01 -3.947268411438848990e-01 5.304488087142967823e-01 -6.671522489206904716e-02 4.021648773437507263e-01 3.430829098981180714e-03 7.574930243262918417e-01 -4.321355557743659093e-01 3.536135640874892294e-01 -2.996022837061989019e-01 -7.452438768605043617e-02 -8.495129833517393869e-02 -3.165719752634583162e-01 -5.178452841998851808e-01 7.843919865588764306e-01 2.682848196148269748e-01 7.464332599386624967e-01 -1.667141408830806748e-01 3.521285408252148863e-01 1.046531559783298454e-01 -3.290441283077858575e-02 4.054563702937506731e-02 -2.462237038322783178e-01 1.555591523789094655e-01 -3.963833294438621757e-01 2.623700372344097906e-02 3.557891188823570361e-01 9.474625354723498205e-01 5.878080259557866283e-02 7.269377064800441879e-01 -5.472554877398573270e-01 -2.337750623364120428e-01 7.578854496598493029e-02 -2.289251429024290740e-01 -3.190004845192906946e-01 -1.520007795008346263e-01 3.647586928424637054e-01 2.766471950739227831e-02 1.279337152188878869e-02 9.944997914680715478e-01 2.653454249485702188e-01 4.173302619102638444e-01 -3.746341384753835158e-01 -9.081660660331802859e-02 8.454036066245023129e-01 -6.025496410542160314e-02 9.250151984247093062e-02 -1.590210483091687999e-01 -1.642042924856330355e-01 3.051021161843820440e-01 -6.059491139360626555e-01 1.053099303682994842e-01 -1.816684003483146348e-01 -1.222562782073697979e-01 1.531303685356169286e-01 -3.576621685618670138e-02 1.624934291476146930e-01 -2.308657590717000663e-01 -3.969868549862772267e-01 -3.281714937436528423e-01 -8.250615844449800396e-02 -9.607688552574387975e-02 8.673708445090186347e-02 -2.142020190901677834e-01 -9.253423715959881168e-02 1.636699302217244356e-01 -1.698871758215116656e-01 -2.617469874464815049e-01 2.789435786651119908e-01 7.855245261535213908e-02 1.956237751234178590e-01 -1.245914785881885312e-01 1.922519990369453771e-02 -4.358921759167256466e-02 1.489008035445065110e-02 -2.114997136651945997e-01 -5.752507861961833613e-02 -2.374388268388194778e-01 4.487830754645851829e-03 -1.568590513180422863e-01 6.690062116760293609e-01 -1.562291560027869730e-01 -1.167709280073030674e-02 8.529577192410481290e-02 -2.665254718210268159e-01 7.685536083878665714e-01 -1.417554874736260961e-01 6.918447993351698085e-03 -1.734016980834465482e-01 8.930435130973697344e-01 6.245756993125536199e-02 5.945256674889240478e-02 -9.797860880307780046e-03 2.413351301115151948e-01 3.405759119100036370e-01 -5.260321253034778294e-02 -1.155545509725653952e-01 -3.022133447864965849e-01 -4.746473966797518651e-01 -1.091879415643955548e-01 1.589909051639785686e-01 -4.585227504755302053e-01 2.146675078870225184e-01 4.730390087684668288e-01 4.328795621204827859e-01 7.093022829806672203e-01 2.056515193567436395e-01 -2.612540590452251399e-01 -6.833976239496743210e-02 -5.228592999799552832e-01 8.021312621220979544e-01 -1.806232743335399460e-01 -1.831102768809977632e-01 -2.595867941045788552e-01 4.332696446896144166e-02 1.354563480546427945e-01 5.393414608954720801e-01 2.375010963529966268e-01 2.507270317462041431e-01 2.231344515727271827e-01 6.117815188445829833e-01 4.810401705746513573e-02 -5.938214494898459428e-01 -1.582531713258750194e-01 -2.622511548607595055e-01 -2.212542824868911073e-01 -1.577995863364234364e-01 4.476662955330846794e-01 1.044712946639391460e-01 -1.537283272597505246e-01 1.624959163654282890e-01 8.505344518671347220e-01 5.990522497348284292e-02 -5.288180171935291662e-01 2.461710623411480364e-02 -2.084980716546483426e-01 -6.711569317673677926e-01 2.043029441716043004e-01 -3.608399392663166200e-02 -3.021665360929938204e-01 -4.995719302465747580e-01 -4.372399911955495155e-01 7.401719037350536039e-03 5.372292123333062275e-01 5.471482150638663777e-02 3.145051034519658617e-01 -1.157049304317570582e-01 2.900994570703067654e-01 -3.587509149508086859e-01 1.151586619364034780e-01 4.574400626764211775e-01 -9.144531790870735755e-01 -1.729630237899117406e-01 -1.252263759956246669e-01 -8.035011333407469092e-01 6.444681370555963573e-01 2.739350131945146316e-01 2.193668823107020049e-01 -1.883847364997568996e-01 -6.864630213699991768e-03 -4.754393012483747183e-02 -5.807362344984718511e-02 -5.639188874126738714e-03 3.442161816923468010e-01 -5.598191092600259822e-01 -3.736781821482340615e-01 -1.840419810439528903e-01 -7.488079395158322993e-02 -1.361108054088609742e-01 1.992329361343606053e-01 2.197161542428362757e-01 1.032945083056039520e-01 -7.327455433978993793e-02 8.202563839760448894e-02 -2.129798922749646384e-01 -2.452508902403227886e-01 -7.835214238410719012e-02 1.163813729781022765e-01 -4.204971089993018163e-01 2.178642991112286764e-01 -1.149731761212985925e-01 3.699039407088908216e-02 1.192667335703871956e-01 -1.037908133481815071e-01 7.470626502621602327e-02 -8.269153786222327440e-01 -9.774048941230688570e-01 4.455238936899936358e-03 -9.268204780353196670e-02 3.321159141561269013e-01 4.900808070549024786e-01
4.235335855475479204e-04 -1.988240814419475200e-01 -5.144219885360772071e-02 -1.729372492887624665e-02 -3.281401970075554786e-01 1.181937080798584894e-01 1.255016439685140671e-02 -1.306023387814983505e-01 -1.849604965434338277e-01 2.313480403937870911e-01 3.157372563127635590e-01 4.016653400777874805e-01 -1.344936784592156154e-01 6.965678968230031298e-01 2.461955980091073137e-01 -2.296078100483409379e-01 7.664787610410941920e-02 -2.113288151866253572e-01 -1.674988722099361449e-01 2.289154997220400889e-02 -1.340129792626511829e-01 5.378235061619111856e-02 3.947913334561340554e-02 1.309722458746483409e-01 -4.279971737339377524e-01 -9.367118451522536693e-02 -2.980372383465502151e-01 -6.000132489077588671e-01 -1.079979906357397476e-02 -5.844340886754855607e-02 1.373217038838226434e-01 -2.684265248797689241e-01 4.618070896790624560e-03 5.892766904054033000e-02 -3.612400843793196481e-01 2.817953989361930422e-01 5.935466340155140519e-02 -3.538908444150611760e-02 -1.778581777332719216e-01 1.118800500636203121e-01 1.649793691139588014e-01 -3.136713001468920958e-01 6.316934271796283140e-02 1.786876277141385139e-01 1.192872163892256566e-02 -2.264100498095150404e-01 6.079078990844525437e-02 2.334881332129705722e-01 -4.907968832047384655e-01 3.658421054058210841e-03 -1.295771413398255356e-01 3.281883892843611567e-02 1.342725080105537649e-02 -2.904129848150852067e-01 -5.435239544588141847e-01 8.253629279059859769e-02 -2.280284502896323673e-02 1.919937491722859685e-02 4.960170673849952083e-02 1.633795739207329067e-02 -2.458223602102165561e-01 -3.398691920254937604e-01 -4.781320715115368325e-02 -2.006829113368081008e-01 1.520869425736135795e-02 -9.561442920177311289e-02 5.090192632086971702e-01 6.085724233319911303e-02 -2.037756806636732698e-01 3.130300068958170034e-01 1.908012311864645816e-02 1.757044338343982381e-01 -1.267577081502229142e-01 2.196927858480544615e-01 1.112636059501271313e-01 -2.671222396582054737e-01 -1.036195522746439501e-01 -2.701125541099115290e-01 -6.078395280329439154e-02 2.804149421052578584e-01 -1.548383656195614355e-01 -2.125267013626045975e-01 3.356064253478996395e-01 -8.117047859461505865e-01 -2.868772005605075837e-01 -1.888623977386056640e-01 1.480612301404594100e-01 9.916918001996162524e-02 1.850074507817053293e-01 -2.217625753351890605e-01 -2.072979975865181235e-01 -1.358059439000671720e-01 1.063449448225683158e-01 -9.493741165700872453e-02 5.112676648329462781e-01 3.113297182600829327e-01 -3.465540955697942183e-01 -1.307973203212166487e-02 -1.818564873197472953e-01 -3.864812405863141676e-01 -4.526035743093385078e-01 3.845061430245308443e-01 -3.337215727726915437e-01 2.027984954302226861e-01 -1.583251439759199471e-03 1.433229784282914199e-01 4.463696285142831205e-02 1.376268479808841760e-01 7.734429090763382530e-02 -7.082726341542945336e-01 -8.693117229441832405e-02 1.302287078003178389e-01 3.296618289614627328e-01 1.158880821092518262e-02 -1.037500620959381364e-01 -3.983160201481793505e-01 -1.249502648873224292e-01 -1.562353564882302537e-01 -1.097702758534241374e-01 -4.229029435628134381e-01 1.857369299115081973e-01 -3.286378276553808542e-01 -3.537895045525733806e-02 -3.172589545402631356e-02 1.512430105530453983e-01 -5.726062432292732263e-01 -5.418249630126551475e-01 -3.430916368861489651e-01 1.461501932150510892e-02 1.201511210224307513e-01 1.810200798123832652e-02 -1.220062774791942917e-01 -3.389950241665443120e-02 2.962646668255930482e-02 3.958440981499443678e-01 6.948586047187306214e-01 2.622233774268724060e-01 2.151914512660109691e-01 -3.133323264112802264e-01 -8.239459414186643682e-02 -2.399112373753764516e-01 2.411229125003482021e-02 2.593563846064017575e-01 9.361486016521822773e-01 -1.883699610888390497e-01 9.196766563397686944e-01 8.824137051652520825e-01 2.187736390390523644e-01 -1.065075355042978122e-01 5.154629441396335610e-02 1.752195499853537175e-01 -3.405213657427889062e-01 3.645195283578116924e-02 5.887622346449838256e-02 4.468762619778643419e-01 1.387409988775579472e-01 -2.851488500463281867e-02 -1.096975496857139631e-01 2.905604904771993957e-01 -4.994563441235698731e-01 -4.793854858278376319e-01 1.264719765678960217e-01 1.723145964230802518e-01 5.311546412983001453e-01 3.628461750395562957e-01 1.322712660915378036e-01 2.525229738180963523e-01 -1.056860166980963522e-01 -1.027820809938936736e-01 2.597362059019823755e-01 3.038621904446747735e-01 4.177968722794514478e-01 2.103278109925028061e-01 -2.104394645873296915e-02 -1.153854293531468844e-01 -1.692927642013324074e-01 -2.584921125965624067e-01 3.037471784240763917e-01 7.390078412583229728e-01 3.695558254355605365e-01 5.580918656067949957e-02 -1.124956335743768632e-01 1.093007981748755630e-01 -1.916624086649970637e-01 -4.401667530865769340e-01 -6.634953120383229042e-01 9.885966514759553236e-02 5.306676447234781602e-01 -9.507890794645070809e-01 -2.006440294159401172e-01 -9.232068111269710331e-02 9.134368284874813670e-02 -4.181415286091811345e-01 4.296763502550342562e-01 -1.546297854604855582e-01 -4.093747163920478660e-01 -1.229596992803619615e-01 3.787331840418778350e-01 -3.121032114832127391e-01 2.901646704772146701e-01 2.269327214528539249e-01 -5.191758630470262315e-01 3.584705000201480751e-01 6.923383069104647181e-01 1.989937339639426261e-01 6.394651088775844539e-01 4.336863725339266951e-02 -1.323285294971157100e-01 1.611331534896673079e-01 -1.364273150597801465e-01 -2.149876591880234000e-01 -4.454460770821686011e-01 -4.206654105405572830e-01 -1.620637058906681249e-01 4.795031545637661319e-01 -8.750242815558513521e-02 -6.287125322574832476e-02 -2.732310696319486532e-01 9.416308971299243158e-01 4.520565633590213905e-01 -3.240117902856247123e-01 1.624996105491008716e-02 1.793824072382427248e-01 3.652741462208379253e-01 -6.211827157934124433e-02 3.437794565555513104e-02 -4.187133915449367527e-01 -1.972103056821551403e-01 4.464279846879364300e-01 1.094892492551230168e-01 -1.722282330122096028e-01 -1.741127479252377874e-01 9.850930798303496327e-02 4.021648773437507263e-01 -1.054482180026314608e-01 7.574930243262918417e-01 -2.189524170981074214e-01 1.116678620932649579e-01 -2.862910533819574277e-01 -1.240771381093699333e-01 5.907364355313642068e-02 5.737222795379623985e-01 3.745185881396217997e-02 7.843919865588764306e-01 4.451478839579237068e-02 7.464332599386624967e-01 -1.915852873000720435e-01 1.587728753961094030e-01 1.987045432917825261e-01 1.621852431212528478e-01 -2.263919629850603688e-01 -1.399785004447245129e-01 -3.328867811714290026e-01 -4.423805466510462303e-02 1.463635112935806060e-01 3.503954632757212972e-01 9.474625354723498205e-01 -1.409910796506639863e-01 7.269377064800441879e-01 -4.806236677422873194e-01 -4.901189549278359148e-02 -3.940825291184307799e-01 -1.170600930771640846e-01 1.607056232320449446e-02 -5.618044792561165401e-01 3.052132823594235767e-01 -6.232164147640251173e-02 -1.968821113369996767e-01 9.944997914680715478e-01 -3.258791591587752445e-01 -4.110804253984564616e-01 1.802498563642197515e-01 3.191747232313649763e-01 8.454036066245023129e-01 9.447457019809893386e-02 2.956299219957557803e-02 -2.163578903252282304e-01 2.047736397839187428e-01 -6.634987368903000338e-02 1.027905135683685328e-01 -2.615734204056778811e-01 -8.085063829094825127e-01 -2.073454150101262383e-01 -8.762276825886340659e-02 7.232070288413439130e-03 2.865393614777440034e-01 2.216315666231373216e-01 3.261005297258069979e-01 4.046391462497973546e-01 -4.860746993955641360e-01 -1.986491130260478466e-01 1.436985782390236555e-01 -1.445384763767530167e-01 -3.788900026837905416e-02 4.105210985849516159e-01 1.306479602477828572e-01 -2.617469874464815049e-01 -4.089376373638985429e-01 5.675264390489578314e-01 3.430014183265054917e-01 7.305826595184686800e-01 -1.279588835539673120e-02 6.577922487054327361e-02 5.715890037828024184e-01 -2.611383504065485917e-01 -8.693571179569703489e-02 -3.791080862757867931e-01 -7.253284526343570238e-02 -4.346793339522171951e-01 -1.162298053134465520e-01 -4.431245262333354251e-01 -2.040756672754532597e-01 2.634748639014188321e-01 -1.081465163001174012e-01 7.685536083878665714e-01 -9.993271219910943026e-02 -6.185215771272462026e-02 3.657968811968369260e-02 8.930435130973697344e-01 -8.900260849299482246e-02 -1.854436756872150562e-03 -3.075399089002101016e-01 -4.656254046137729974e-01 -1.235619415709219709e-01 -2.899762564878063595e-02 1.110214789010567360e-01 2.171285132716408162e-01 1.611411038746108360e-01 2.000574096720653394e-01 -6.094862686394403317e-02 6.415507211147826461e-02 7.402809798399823116e-02 -1.604742432041077749e-01 -7.064608788540215067e-02 7.093022829806672203e-01 -5.781490715405293024e-01 -5.324946380436281768e-01 4.972484472417214030e-01 -5.228592999799552832e-01 8.021312621220979544e-01 4.450019729737144519e-02 1.997121648738263144e-01 -2.365713875470861205e-01 2.619541906412403143e-01 4.617953405813604584e-02 1.255919230549636390e-01 -3.527422129323036781e-01 -3.010980287679011422e-02 9.610895776467853757e-02 6.117815188445829833e-01 4.012544285651145071e-01 1.282812930708946142e-01 8.294647242152300426e-02 -1.116712597784679517e-01 -2.579844037524012812e-01 3.526464507855905234e-02 3.408237537389363636e-01 9.485733271760126151e-01 1.114534205236617920e-01 -1.551739122491829770e-01 8.505344518671347220e-01 1.292227458161925024e-02 -4.035975888943458267e-01 2.113537889722660046e-01 -2.084980716546483426e-01 -1.075599272364865661e-01 3.594458039038755937e-01 4.147235885369389141e-01 -2.698866411533858058e-03 2.334319510689523147e-01 1.458217079938522731e-01 -8.098184444950330685e-02 -1.160620775230147422e-01 2.456691185979154868e-01 3.955374667051509974e-01 -1.242932065586387080e-01 -3.353981600720623568e-01 -2.626622362653823275e-02 -3.652214198335346218e-02 6.438613699217550501e-02 4.009910800641378059e-02 -4.472410681785031483e-02 1.977780042930097348e-01 -1.377534652314366392e-01 -1.257247878061081847e-01 -2.008597698256978092e-02 -1.666507929670572319e-01 6.728554055447788507e-01 1.310534508533004773e-02 2.137648256225177512e-02 -5.742496497304588887e-02 -2.941192516423296044e-01 -1.706939388915939548e-01 -2.320280723832237463e-02 1.941596940158330231e-01 -1.746025157528739366e-02 -1.319687091790562317e-01 -1.361108054088609742e-01 -3.918706341746748256e-01 2.186533979783385206e-01 -3.251499339146955436e-01 2.960726730975551391e-01 -1.417263729796977290e-01 -2.320055498194996662e-03 -1.426793891965399685e-01 1.669029557119429408e-02 3.486766399868742594e-01 2.957805848944668470e-01 2.996371435701047359e-01 9.565713488047064561e-02 -1.727443804895560653e-01 -1.165266665098674270e-01 3.037401579759033219e-03 3.934229377501115010e-01 1.105567506431671676e-01 -9.774048941230688570e-01 -1.526730319432865746e-01 5.797792826768808500e-02 -1.280415658942458956e-01 1.500428605393937798e-01
1.082572908373023585e-01 -1.988240814419475200e-01 1.419996187821841171e-01 -1.812613356264862752e-01 -3.281401970075554786e-01 1.181937080798584894e-01 -3.131409313000378392e-01 -1.306023387814983505e-01 1.360554108419783359e-01 -9.267565518563238014e-02 1.831475212286615972e-01 -1.962227066746682902e-01 -1.415885565237847421e-01 6.965678968230031298e-01 -2.678180514559328484e-01 -2.296078100483409379e-01 1.656674962675903640e-01 -1.675331240048025250e-01 -4.288076962735816178e-01 3.412136014945664486e-02 6.296953454518046389e-02 -7.203466688972617882e-02 5.635524867963000173e-02 -1.623821819637900551e-02 2.338264861768633018e-01 -9.367118451522536693e-02 1.539276721046719254e-01 -1.116035437615344253e-02 9.171006111972422603e-02 1.226013470783000464e-01 -1.085903761143637014e-01 1.972420305265140394e-01 -4.169804661034059445e-01 -2.630341595113458095e-02 -3.636129250784152500e-01 1.025110483362172420e-01 -1.188928624339382067e-01 -2.805303606015139839e-01 -9.515155579980753842e-02 -5.086037361305140170e-01 4.452923946051737941e-03 2.185982860127996114e-02 -8.943237978139340072e-02 1.969766102143398478e-01 2.649465664859733741e-02 5.378726214255601795e-02 -1.678773373985212869e-01 5.303166126608179626e-02 -8.131979748195046487e-02 1.702118599334228877e-01 -2.898945119631947676e-01 3.362206268792143904e-01 1.663779679168394254e-01 -1.014272893876426163e-01 5.383636111059699608e-02 3.347678405915662792e-01 -3.420207246842960624e-01 -2.350737029234296893e-01 1.648274617687089383e-01 1.590649664791023848e-02 -1.317777861911088033e-01 -1.790031545948055081e-01 2.428163031197270311e-02 -8.661073130614770077e-02 7.049671116312763997e-02 -5.855573584861815256e-02 6.668391277048395516e-01 -1.500743112370200028e-01 -2.738936293061436378e-01 3.130300068958170034e-01 1.680045907847247666e-01 1.936544613239109258e-01 2.564025312226045003e-02 9.847790707022874290e-02 1.020080198956363621e-01 2.292146005871631420e-01 1.027389722061480652e-02 -3.698327070406660089e-01 -6.078395280329439154e-02 1.555067439453988176e-01 4.745080837815833508e-02 -1.137771754501171184e-01 -1.114613037809136266e-02 5.220696562915438932e-02 6.036596050433936655e-01 -2.538975803159169709e-01 -3.838236885457938508e-01 -5.029562097452572322e-02 1.850074507817053293e-01 2.091613529664090865e-01 4.277367327571353628e-01 2.183949032153176539e-01 4.818044511840348376e-02 -1.866632440120274128e-01 5.112676648329462781e-01 3.113297182600829327e-01 2.858077818398480074e-01 2.454951292718826894e-01 -1.818564873197472953e-01 -2.521717672912522912e-01 1.323877477196847841e-01 -3.260810615134840384e-01 2.601186934061750378e-03 2.634511181408355496e-01 -1.583251439759199471e-03 -5.166930657646458952e-02 4.463696285142831205e-02 1.376268479808841760e-01 7.734429090763382530e-02 -7.082726341542945336e-01 -8.693117229441832405e-02 1.302287078003178389e-01 3.296618289614627328e-01 -2.047047209611980723e-01 -1.154391326634103404e-01 -3.983160201481793505e-01 -1.298215966792553855e-01 -1.168858758169010192e-01 -1.097702758534241374e-01 -4.229029435628134381e-01 1.857369299115081973e-01 -2.144549548252530913e-01 -3.537895045525733806e-02 -3.172589545402631356e-02 1.512430105530453983e-01 -5.726062432292732263e-01 -5.418249630126551475e-01 -3.430916368861489651e-01 1.461501932150510892e-02 -8.683427693081526705e-03 1.021559571353974627e-01 -9.442552454928183903e-02 -6.190248613056179572e-01 -3.232899233673050543e-01 -4.054928163041057187e-01 6.948586047187306214e-01 3.113278651662059748e-01 -6.524412660395649821e-01 -5.906671613389699593e-02 -2.557798431934532046e-01 -2.399112373753764516e-01 2.411229125003482021e-02 2.593563846064017575e-01 9.361486016521822773e-01 -1.883699610888390497e-01 9.196766563397686944e-01 8.824137051652520825e-01 2.187736390390523644e-01 -1.065075355042978122e-01 5.154629441396335610e-02 1.752195499853537175e-01 -3.405213657427889062e-01 3.645195283578116924e-02 5.887622346449838256e-02 4.468762619778643419e-01 1.387409988775579472e-01 -2.851488500463281867e-02 -1.096975496857139631e-01 2.905604904771993957e-01 -4.994563441235698731e-01 -2.206988317422084178e-01 -3.323089834580255642e-01 1.723145964230802518e-01 5.311546412983001453e-01 9.786853504074936871e-02 1.322712660915378036e-01 -4.178621680641702030e-01 -1.056860166980963522e-01 -1.027820809938936736e-01 2.597362059019823755e-01 3.038621904446747735e-01 4.177968722794514478e-01 2.103278109925028061e-01 -2.104394645873296915e-02 -5.062819866269517577e-02 -1.692927642013324074e-01 4.376642310159628568e-02 3.037471784240763917e-01 7.390078412583229728e-01 3.695558254355605365e-01 5.580918656067949957e-02 -1.124956335743768632e-01 1.093007981748755630e-01 -1.916624086649970637e-01 -4.401667530865769340e-01 -6.634953120383229042e-01 9.885966514759553236e-02 5.306676447234781602e-01 -9.507890794645070809e-01 -2.006440294159401172e-01 -9.232068111269710331e-02 9.134368284874813670e-02 4.364766550080905610e-02 4.296763502550342562e-01 1.453524784479232890e-01 -4.093747163920478660e-01 -1.229596992803619615e-01 5.123782436547687225e-02 -3.121032114832127391e-01 2.333124584386847278e-01 2.269327214528539249e-01 -4.066275513875117903e-02 3.584705000201480751e-01 6.923383069104647181e-01 1.989937339639426261e-01 6.394651088775844539e-01 4.336863725339266951e-02 -1.323285294971157100e-01 1.611331534896673079e-01 -1.364273150597801465e-01 3.165197536578891468e-01 1.572912234997589712e-02 1.120992629723686906e-01 -1.620637058906681249e-01 4.795031545637661319e-01 -1.298408445918982079e-01 -6.287125322574832476e-02 -2.732310696319486532e-01 9.416308971299243158e-01 4.520565633590213905e-01 -3.240117902856247123e-01 1.624996105491008716e-02 1.793824072382427248e-01 5.431490622795678153e-02 -6.211827157934124433e-02 3.437794565555513104e-02 -4.187133915449367527e-01 -1.972103056821551403e-01 4.464279846879364300e-01 1.094892492551230168e-01 -1.722282330122096028e-01 -1.741127479252377874e-01 9.850930798303496327e-02 4.021648773437507263e-01 -1.054482180026314608e-01 7.574930243262918417e-01 -2.189524170981074214e-01 1.116678620932649579e-01 -2.862910533819574277e-01 -1.240771381093699333e-01 2.264237988705929822e-02 5.737222795379623985e-01 3.745185881396217997e-02 7.843919865588764306e-01 4.451478839579237068e-02 7.464332599386624967e-01 -1.915852873000720435e-01 1.587728753961094030e-01 1.987045432917825261e-01 1.621852431212528478e-01 -1.817459320680148982e-01 -1.399785004447245129e-01 -3.328867811714290026e-01 -4.423805466510462303e-02 1.463635112935806060e-01 3.503954632757212972e-01 9.474625354723498205e-01 2.071071450767241195e-01 7.269377064800441879e-01 -4.806236677422873194e-01 -4.901189549278359148e-02 3.132578408839143402e-01 -1.170600930771640846e-01 -8.267333435322327118e-02 -5.618044792561165401e-01 3.052132823594235767e-01 -6.232164147640251173e-02 -1.968821113369996767e-01 9.944997914680715478e-01 -3.258791591587752445e-01 -4.110804253984564616e-01 -9.555298379235879769e-02 3.191747232313649763e-01 8.454036066245023129e-01 2.462260854143515920e-01 2.956299219957557803e-02 -2.163578903252282304e-01 2.047736397839187428e-01 -6.634987368903000338e-02 4.480198246810133261e-02 2.592223593128114567e-01 -8.085063829094825127e-01 -2.073454150101262383e-01 -8.762276825886340659e-02 7.232070288413439130e-03 2.865393614777440034e-01 -1.619314223462915148e-01 -2.044280542258580524e-01 4.046391462497973546e-01 -4.860746993955641360e-01 -1.986491130260478466e-01 -1.784280663111641185e-01 -1.445384763767530167e-01 -4.497628948817151973e-02 4.510682921076968749e-02 1.306479602477828572e-01 6.741110372398027850e-02 -4.089376373638985429e-01 2.923453883386030183e-01 3.430014183265054917e-01 -9.811118109626738859e-02 -1.279588835539673120e-02 -2.464284896177061090e-01 5.715890037828024184e-01 -2.611383504065485917e-01 -8.693571179569703489e-02 -3.998702725614762254e-01 -7.253284526343570238e-02 2.169614433552552180e-01 -1.162298053134465520e-01 -4.431245262333354251e-01 -2.248860162836368026e-01 2.634748639014188321e-01 -1.081465163001174012e-01 7.685536083878665714e-01 -9.993271219910943026e-02 -6.185215771272462026e-02 3.657968811968369260e-02 8.930435130973697344e-01 -8.900260849299482246e-02 -9.655206763084762944e-02 -3.017511625279720167e-01 -4.656254046137729974e-01 -1.180609149044358902e-01 -2.899762564878063595e-02 1.110214789010567360e-01 2.171285132716408162e-01 1.611411038746108360e-01 2.000574096720653394e-01 -6.094862686394403317e-02 6.415507211147826461e-02 7.402809798399823116e-02 -2.501428719788384436e-01 -7.064608788540215067e-02 7.093022829806672203e-01 -5.781490715405293024e-01 -5.324946380436281768e-01 4.972484472417214030e-01 -5.228592999799552832e-01 8.021312621220979544e-01 4.450019729737144519e-02 1.997121648738263144e-01 -2.365713875470861205e-01 2.619541906412403143e-01 4.617953405813604584e-02 1.255919230549636390e-01 -3.527422129323036781e-01 -3.010980287679011422e-02 5.793455017255709771e-01 6.117815188445829833e-01 4.012544285651145071e-01 1.282812930708946142e-01 8.294647242152300426e-02 -1.116712597784679517e-01 -2.579844037524012812e-01 3.526464507855905234e-02 2.922968112703847043e-01 9.485733271760126151e-01 1.114534205236617920e-01 9.025010168550552658e-02 8.505344518671347220e-01 1.292227458161925024e-02 -4.035975888943458267e-01 2.113537889722660046e-01 -2.084980716546483426e-01 -3.539741278171041478e-02 1.301826426545933668e-01 4.147235885369389141e-01 -2.698866411533858058e-03 2.334319510689523147e-01 1.458217079938522731e-01 -3.278400901840289872e-01 -1.160620775230147422e-01 5.526408929796979008e-03 1.737035449243809482e-01 -1.242932065586387080e-01 -3.353981600720623568e-01 -2.626622362653823275e-02 -3.652214198335346218e-02 6.438613699217550501e-02 -2.472485264392835780e-01 -5.097786330804757737e-01 1.977780042930097348e-01 -1.377534652314366392e-01 -1.257247878061081847e-01 3.465449762647607179e-01 -1.666507929670572319e-01 6.728554055447788507e-01 1.310534508533004773e-02 2.137648256225177512e-02 -5.742496497304588887e-02 1.982896793883345832e-01 -1.706939388915939548e-01 -2.320280723832237463e-02 1.941596940158330231e-01 -1.746025157528739366e-02 -1.319687091790562317e-01 -1.361108054088609742e-01 -3.918706341746748256e-01 2.186533979783385206e-01 -3.251499339146955436e-01 2.960726730975551391e-01 -1.417263729796977290e-01 -2.320055498194996662e-03 -1.426793891965399685e-01 1.669029557119429408e-02 3.486766399868742594e-01 2.957805848944668470e-01 2.996371435701047359e-01 -9.016782364547839546e-01 6.596794848214400098e-01 -1.165266665098674270e-01 3.037401579759033219e-03 3.934229377501115010e-01 1.105567506431671676e-01 -9.774048941230688570e-01 -1.526730319432865746e-01 5.797792826768808500e-02 -5.811876037249513738e-01 1.500428605393937798e-01
1.082572908373023585e-01 -1.988240814419475200e-01 1.419996187821841171e-01 -1.812613356264862752e-01 -3.281401970075554786e-01 1.181937080798584894e-01 -3.131409313000378392e-01 -1.306023387814983505e-01 1.360554108419783359e-01 3.892735234665032906e-01 1.831475212286615972e-01 -1.962227066746682902e-01 -1.415885565237847421e-01 6.965678968230031298e-01 -2.678180514559328484e-01 -4.837758266766259418e-01 2.910529174709592173e-02 -1.675331240048025250e-01 4.822991743679283516e-02 3.412136014945664486e-02 6.296953454518046389e-02 -7.203466688972617882e-02 5.635524867963000173e-02 -1.623821819637900551e-02 1.871220442865954847e-01 -9.367118451522536693e-02 2.649121486586909491e-01 -1.116035437615344253e-02 1.406984429998547892e-01 1.226013470783000464e-01 -1.085903761143637014e-01 1.972420305265140394e-01 -4.169804661034059445e-01 -7.713472447840330481e-02 -2.127806874180077912e-01 1.025110483362172420e-01 -1.188928624339382067e-01 -2.805303606015139839e-01 -9.515155579980753842e-02 -5.086037361305140170e-01 4.452923946051737941e-03 2.185982860127996114e-02 6.316934271796283140e-02 1.969766102143398478e-01 7.734727107308247973e-02 5.378726214255601795e-02 -8.145415007889383885e-02 -1.947053582681084749e-01 -3.841817261170856618e-02 -1.163650457483057926e-01 -2.898945119631947676e-01 3.362206268792143904e-01 1.663779679168394254e-01 -1.149409105489631044e-01 -4.397680098574976992e-01 7.472155160375877347e-01 -2.393810863932556987e-01 -7.933691754489038961e-02 3.955214279144596556e-01 9.111031447388252824e-02 -4.372357985328677588e-01 -8.499922515408826762e-03 1.722839224880396702e-01 3.277342310268603343e-01 -4.151229920955737951e-01 -4.409027085453256500e-01 -5.545739513671002485e-02 -1.639341748411975719e-01 3.191816166007205302e-01 2.421763612576801131e-02 -1.623921298513267275e-01 -2.028093538288830433e-01 -4.058145388846378654e-01 -9.192488571016406429e-03 -5.810578924378157623e-02 -1.698091810669223045e-01 1.027389722061480652e-02 -3.698327070406660089e-01 -6.078395280329439154e-02 1.555067439453988176e-01 4.745080837815833508e-02 -1.137771754501171184e-01 -1.114613037809136266e-02 5.220696562915438932e-02 6.036596050433936655e-01 -2.538975803159169709e-01 -3.838236885457938508e-01 -4.416697219132609264e-01 2.485891571607805051e-01 -1.057620609764505781e-01 1.135036768653793215e-01 3.053760841523578962e-01 6.614291166792883592e-02 -1.866632440120274128e-01 5.112676648329462781e-01 3.113297182600829327e-01 4.235880652132287261e-01 7.151788356791734247e-02 -1.818564873197472953e-01 3.138971981304483072e-01 -4.526035743093385078e-01 3.047583092754817535e-01 -3.337215727726915437e-01 2.027984954302226861e-01 -1.583251439759199471e-03 -5.166930657646458952e-02 4.463696285142831205e-02 1.376268479808841760e-01 -1.029560452205921933e-01 -4.727315387333046459e-01 1.469107221276115816e-01 1.302287078003178389e-01 3.296618289614627328e-01 1.739603765717425560e-02 -1.040937202712656495e-01 -3.983160201481793505e-01 -1.298215966792553855e-01 3.748718665996444988e-02 -3.855980064960063403e-01 -1.012383289290735289e-01 -4.004219728307828463e-01 1.920307684324532027e-01 -3.537895045525733806e-02 1.024283852790999760e-01 9.520977980470968216e-02 -5.726062432292732263e-01 -1.472509345492616917e-01 -9.079773312371444693e-02 5.445117633077589669e-02 1.460390181053682068e-01 -2.541757932114510066e-01 9.030045888618261352e-02 -3.389950241665443120e-02 2.962646668255930482e-02 3.958440981499443678e-01 6.948586047187306214e-01 2.622233774268724060e-01 2.151914512660109691e-01 -3.133323264112802264e-01 -8.239459414186643682e-02 -1.494731093490738816e-03 -2.309869368649727916e-02 1.991514085244391885e-01 9.361486016521822773e-01 -4.521173377228090984e-02 9.196766563397686944e-01 8.824137051652520825e-01 -1.728583937121427536e-02 6.649836387445602626e-02 -1.658543111826022431e-01 -1.464448797605065467e-01 -2.676471339708564878e-01 3.645195283578116924e-02 5.887622346449838256e-02 4.468762619778643419e-01 -2.254077294481006410e-01 1.222328135591761594e-01 -1.096975496857139631e-01 -1.076982623049868443e-01 -4.994563441235698731e-01 4.786553966370531155e-02 2.344799448060455593e-01 -1.920784858237951660e-03 5.311546412983001453e-01 -1.165852616645134954e-01 2.451476529394181203e-01 -1.621276601194181766e-01 1.335389308018906651e-01 2.744960164776255040e-01 1.552677428419228789e-01 -2.414534626072620538e-01 -9.221135685331705023e-02 1.589371091929726865e-01 -4.178322906318231861e-02 4.176332166118079114e-01 -1.692927642013324074e-01 -2.584921125965624067e-01 1.058024172080458680e-01 7.390078412583229728e-01 2.404655663251607095e-02 -8.203630545920198580e-02 2.911814385312859188e-01 -1.750737513523531741e-01 -3.857425806856438211e-01 -3.817650835082277427e-01 -6.634953120383229042e-01 2.752224273310553970e-01 -5.765121818195011183e-02 -9.507890794645070809e-01 -2.006440294159401172e-01 -9.232068111269710331e-02 -2.594600747363589588e-01 4.364766550080905610e-02 4.296763502550342562e-01 1.453524784479232890e-01 -4.093747163920478660e-01 -1.229596992803619615e-01 2.803825148472468554e-01 -3.121032114832127391e-01 2.333124584386847278e-01 2.269327214528539249e-01 -4.084445356104486891e-01 3.584705000201480751e-01 6.923383069104647181e-01 1.989937339639426261e-01 6.394651088775844539e-01 4.336863725339266951e-02 -1.323285294971157100e-01 1.611331534896673079e-01 -1.364273150597801465e-01 -2.149876591880234000e-01 1.572912234997589712e-02 1.120992629723686906e-01 -1.620637058906681249e-01 4.795031545637661319e-01 -2.046025205430636040e-01 -6.287125322574832476e-02 -2.732310696319486532e-01 9.416308971299243158e-01 4.520565633590213905e-01 -3.240117902856247123e-01 1.624996105491008716e-02 1.391024593498530193e-01 5.431490622795678153e-02 -6.211827157934124433e-02 3.437794565555513104e-02 -4.187133915449367527e-01 -1.972103056821551403e-01 1.240882817477983874e-01 1.094892492551230168e-01 -1.722282330122096028e-01 -1.741127479252377874e-01 9.850930798303496327e-02 4.021648773437507263e-01 -1.054482180026314608e-01 7.574930243262918417e-01 -2.189524170981074214e-01 1.116678620932649579e-01 -2.862910533819574277e-01 -1.240771381093699333e-01 5.907364355313642068e-02 5.737222795379623985e-01 3.745185881396217997e-02 7.843919865588764306e-01 4.451478839579237068e-02 7.464332599386624967e-01 -1.915852873000720435e-01 1.587728753961094030e-01 1.987045432917825261e-01 1.621852431212528478e-01 -1.817459320680148982e-01 -1.399785004447245129e-01 -3.328867811714290026e-01 -4.423805466510462303e-02 1.463635112935806060e-01 3.503954632757212972e-01 9.474625354723498205e-01 -1.409910796506639863e-01 7.269377064800441879e-01 -4.806236677422873194e-01 -4.901189549278359148e-02 -3.940825291184307799e-01 -1.170600930771640846e-01 -8.267333435322327118e-02 -5.618044792561165401e-01 3.167372539785632407e-02 -6.232164147640251173e-02 -1.968821113369996767e-01 9.944997914680715478e-01 -3.258791591587752445e-01 -4.110804253984564616e-01 -9.555298379235879769e-02 3.191747232313649763e-01 8.454036066245023129e-01 2.462260854143515920e-01 2.956299219957557803e-02 -2.163578903252282304e-01 2.047736397839187428e-01 -6.634987368903000338e-02 4.480198246810133261e-02 2.592223593128114567e-01 -8.085063829094825127e-01 -2.073454150101262383e-01 -8.762276825886340659e-02 7.232070288413439130e-03 2.865393614777440034e-01 -1.619314223462915148e-01 -2.044280542258580524e-01 4.046391462497973546e-01 -4.860746993955641360e-01 -1.986491130260478466e-01 -1.784280663111641185e-01 -1.445384763767530167e-01 -4.497628948817151973e-02 4.510682921076968749e-02 -2.552368014090020121e-02 6.741110372398027850e-02 -4.089376373638985429e-01 2.923453883386030183e-01 3.430014183265054917e-01 -9.811118109626738859e-02 -1.279588835539673120e-02 6.577922487054327361e-02 5.715890037828024184e-01 -2.611383504065485917e-01 -8.693571179569703489e-02 1.870957995781741701e-03 -7.253284526343570238e-02 2.169614433552552180e-01 -1.162298053134465520e-01 -4.431245262333354251e-01 -2.040756672754532597e-01 2.634748639014188321e-01 -1.081465163001174012e-01 7.685536083878665714e-01 -9.993271219910943026e-02 -6.185215771272462026e-02 3.657968811968369260e-02 8.930435130973697344e-01 -8.900260849299482246e-02 -9.655206763084762944e-02 -3.075399089002101016e-01 -4.656254046137729974e-01 -1.180609149044358902e-01 -2.899762564878063595e-02 1.110214789010567360e-01 2.171285132716408162e-01 1.611411038746108360e-01 2.000574096720653394e-01 -6.094862686394403317e-02 6.415507211147826461e-02 7.402809798399823116e-02 -2.501428719788384436e-01 -7.064608788540215067e-02 7.093022829806672203e-01 -5.781490715405293024e-01 -5.324946380436281768e-01 4.972484472417214030e-01 -5.228592999799552832e-01 8.021312621220979544e-01 8.718719360659889228e-02 1.997121648738263144e-01 -2.365713875470861205e-01 2.619541906412403143e-01 4.617953405813604584e-02 1.255919230549636390e-01 -3.527422129323036781e-01 -3.010980287679011422e-02 5.793455017255709771e-01 6.117815188445829833e-01 3.911496653117954025e-01 1.282812930708946142e-01 8.294647242152300426e-02 -1.116712597784679517e-01 -2.579844037524012812e-01 1.431179752352540746e-01 2.922968112703847043e-01 9.485733271760126151e-01 1.114534205236617920e-01 -2.920327076517454379e-01 8.505344518671347220e-01 1.292227458161925024e-02 -4.035975888943458267e-01 2.113537889722660046e-01 -2.084980716546483426e-01 -3.539741278171041478e-02 1.301826426545933668e-01 3.279294607702018527e-01 -2.698866411533858058e-03 2.334319510689523147e-01 1.458217079938522731e-01 -3.278400901840289872e-01 -1.160620775230147422e-01 5.526408929796979008e-03 1.737035449243809482e-01 -1.242932065586387080e-01 -3.353981600720623568e-01 -2.626622362653823275e-02 -3.652214198335346218e-02 6.438613699217550501e-02 -2.472485264392835780e-01 -5.097786330804757737e-01 1.977780042930097348e-01 -1.377534652314366392e-01 -1.257247878061081847e-01 3.465449762647607179e-01 -1.666507929670572319e-01 6.728554055447788507e-01 1.310534508533004773e-02 2.137648256225177512e-02 -5.742496497304588887e-02 1.982896793883345832e-01 -1.706939388915939548e-01 -2.320280723832237463e-02 1.941596940158330231e-01 -1.746025157528739366e-02 -1.319687091790562317e-01 -1.361108054088609742e-01 -3.918706341746748256e-01 2.186533979783385206e-01 -3.251499339146955436e-01 2.960726730975551391e-01 -1.417263729796977290e-01 -2.320055498194996662e-03 -1.426793891965399685e-01 1.669029557119429408e-02 3.486766399868742594e-01 2.957805848944668470e-01 2.996371435701047359e-01 -9.016782364547839546e-01 6.596794848214400098e-01 -1.165266665098674270e-01 3.037401579759033219e-03 3.934229377501115010e-01 1.105567506431671676e-01 -9.774048941230688570e-01 -1.526730319432865746e-01 5.797792826768808500e-02 -5.811876037249513738e-01 1.500428605393937798e-01
1.082572908373023585e-01 -1.988240814419475200e-01 1.419996187821841171e-01 -1.812613356264862752e-01 -3.281401970075554786e-01 1.181937080798584894e-01 -3.131409313000378392e-01 -1.306023387814983505e-01 1.360554108419783359e-01 -9.267565518563238014e-02 1.831475212286615972e-01 -1.962227066746682902e-01 -1.415885565237847421e-01 6.965678968230031298e-01 -2.678180514559328484e-01 -2.296078100483409379e-01 1.656674962675903640e-01 -1.675331240048025250e-01 -4.288076962735816178e-01 3.412136014945664486e-02 6.296953454518046389e-02 -7.203466688972617882e-02 5.635524867963000173e-02 -1.623821819637900551e-02 2.338264861768633018e-01 -9.367118451522536693e-02 1.539276721046719254e-01 -1.116035437615344253e-02 1.406984429998547892e-01 1.226013470783000464e-01 -1.085903761143637014e-01 1.972420305265140394e-01 -4.169804661034059445e-01 -2.630341595113458095e-02 -3.636129250784152500e-01 1.025110483362172420e-01 -1.188928624339382067e-01 -2.805303606015139839e-01 -9.515155579980753842e-02 -5.086037361305140170e-01 4.452923946051737941e-03 2.185982860127996114e-02 -8.943237978139340072e-02 1.969766102143398478e-01 2.649465664859733741e-02 5.378726214255601795e-02 -1.678773373985212869e-01 5.303166126608179626e-02 3.342951393283126738e-01 1.702118599334228877e-01 -2.898945119631947676e-01 2.741472006066843492e-01 -1.605667109478665366e-01 -1.511755731871109731e-01 -1.416157373987151635e-01 7.472155160375877347e-01 -5.061885695440334620e-01 -7.933691754489038961e-02 -1.949308881843598573e-01 1.590649664791023848e-02 -7.923695817570551581e-02 -8.499922515408826762e-03 -1.939121583025722045e-02 1.548606966866392402e-03 -5.493758796207337536e-02 -4.409027085453256500e-01 -5.545739513671002485e-02 1.455617476476793182e-01 3.191816166007205302e-01 2.421763612576801131e-02 -1.623921298513267275e-01 2.510692827853503450e-01 -4.058145388846378654e-01 -8.684981495255350570e-02 -5.810578924378157623e-02 -6.615999466647055210e-03 1.027389722061480652e-02 -3.698327070406660089e-01 -6.078395280329439154e-02 1.555067439453988176e-01 4.745080837815833508e-02 -1.137771754501171184e-01 -6.414045042650761141e-01 -1.112265540674441935e-03 2.045193687178213648e-01 -2.539804111726161051e-01 3.243615427939351425e-01 5.025026622049419966e-01 -1.373389157782199145e-02 -2.217625753351890605e-01 -2.072979975865181235e-01 -1.358059439000671720e-01 1.063449448225683158e-01 -9.493741165700872453e-02 5.112676648329462781e-01 3.113297182600829327e-01 -3.465540955697942183e-01 -1.307973203212166487e-02 -1.818564873197472953e-01 -3.864812405863141676e-01 -4.526035743093385078e-01 3.845061430245308443e-01 -3.337215727726915437e-01 2.027984954302226861e-01 -1.583251439759199471e-03 -5.166930657646458952e-02 4.463696285142831205e-02 1.376268479808841760e-01 7.734429090763382530e-02 -7.082726341542945336e-01 -8.693117229441832405e-02 1.302287078003178389e-01 3.296618289614627328e-01 -2.047047209611980723e-01 -1.037500620959381364e-01 -3.983160201481793505e-01 -1.249502648873224292e-01 -1.562353564882302537e-01 -1.097702758534241374e-01 -4.229029435628134381e-01 1.857369299115081973e-01 -3.286378276553808542e-01 -3.537895045525733806e-02 -3.172589545402631356e-02 1.512430105530453983e-01 -5.726062432292732263e-01 -5.418249630126551475e-01 -3.430916368861489651e-01 1.461501932150510892e-02 -1.903457898173044061e-01 1.810200798123832652e-02 -1.220062774791942917e-01 4.851559331663976016e-01 -7.002515248022682659e-01 -3.250743287170249074e-01 6.948586047187306214e-01 3.113278651662059748e-01 -6.524412660395649821e-01 -5.906671613389699593e-02 -2.557798431934532046e-01 -2.399112373753764516e-01 2.411229125003482021e-02 2.593563846064017575e-01 9.361486016521822773e-01 -1.883699610888390497e-01 9.196766563397686944e-01 8.824137051652520825e-01 -2.454538312882670326e-02 -1.065075355042978122e-01 5.154629441396335610e-02 -1.464448797605065467e-01 -2.676471339708564878e-01 3.645195283578116924e-02 5.887622346449838256e-02 4.468762619778643419e-01 -2.254077294481006410e-01 -1.031213169516350114e-01 -2.358967937457412956e-01 -1.076982623049868443e-01 -4.994563441235698731e-01 -2.721698114460919804e-01 2.344799448060455593e-01 -2.730671440249752280e-01 5.311546412983001453e-01 -2.891228029206519556e-01 2.098973894603498036e-01 2.645203516446239522e-01 8.549776602202704967e-02 1.677592477769989932e-01 -2.596571013282100160e-01 -3.214027547686629238e-01 2.787085534118343144e-01 4.916537380443212202e-01 1.785241989804902951e-01 1.793699024095988803e-01 1.491329078901665883e-01 1.223391467447550174e-01 -1.308827519085287161e-01 7.390078412583229728e-01 -1.578340926118195764e-01 -2.984508838441720102e-01 2.911814385312859188e-01 1.097971573262461337e-01 -2.468287990039974844e-01 -3.817650835082277427e-01 -6.634953120383229042e-01 2.752224273310553970e-01 -5.765121818195011183e-02 -9.507890794645070809e-01 -5.864812391223054450e-02 -3.555853798856298820e-01 9.134368284874813670e-02 4.364766550080905610e-02 4.296763502550342562e-01 1.453524784479232890e-01 -4.093747163920478660e-01 -1.229596992803619615e-01 2.956026910129595509e-01 -3.121032114832127391e-01 2.901646704772146701e-01 2.269327214528539249e-01 -5.191758630470262315e-01 3.584705000201480751e-01 6.923383069104647181e-01 1.989937339639426261e-01 6.394651088775844539e-01 4.336863725339266951e-02 -1.323285294971157100e-01 1.611331534896673079e-01 6.335004625579747362e-02 6.740749396276791983e-02 8.692720526657876645e-02 2.139765354896418920e-02 9.169553822802904708e-02 -1.902282543041078633e-01 -3.816550594757265880e-01 1.380122360328539799e-01 -3.890332819780413509e-03 9.416308971299243158e-01 -8.278953090931384651e-02 -1.971559135013506714e-01 2.163072939820316967e-02 -5.301331962104602891e-01 1.469695617733512375e-03 9.143332319949921266e-03 1.281145091508403278e-01 -7.027712573047457667e-01 -1.842504087596282258e-01 2.643504691609097623e-01 1.861353597003060911e-01 -3.947268411438848990e-01 5.304488087142967823e-01 -6.671522489206904716e-02 4.021648773437507263e-01 3.430829098981180714e-03 7.574930243262918417e-01 -4.321355557743659093e-01 3.536135640874892294e-01 -2.996022837061989019e-01 1.130824523797487879e-01 -8.495129833517393869e-02 -3.165719752634583162e-01 -5.139024673832168905e-02 7.843919865588764306e-01 2.682848196148269748e-01 7.464332599386624967e-01 -1.667141408830806748e-01 3.521285408252148863e-01 1.273898771073032621e-01 -3.290441283077858575e-02 4.054563702937506731e-02 3.719582724410714913e-01 1.555591523789094655e-01 -3.963833294438621757e-01 2.623700372344097906e-02 3.557891188823570361e-01 9.474625354723498205e-01 2.737157192631260449e-01 7.269377064800441879e-01 -5.472554877398573270e-01 -2.337750623364120428e-01 7.578854496598493029e-02 -2.289251429024290740e-01 -3.190004845192906946e-01 -1.334025130574992835e-01 3.647586928424637054e-01 2.766471950739227831e-02 -4.402061950777546029e-01 9.944997914680715478e-01 2.653454249485702188e-01 -1.011302179114982602e-01 -3.746341384753835158e-01 -9.081660660331802859e-02 8.454036066245023129e-01 -6.025496410542160314e-02 -9.349514303522092618e-02 -9.815677414230217224e-02 -1.805764564516491866e-02 -1.528568554713023719e-02 -6.059491139360626555e-01 1.053099303682994842e-01 -5.509926038357518818e-01 -1.222562782073697979e-01 1.366813155548433356e-01 -3.576621685618670138e-02 1.624934291476146930e-01 -2.308657590717000663e-01 -3.969868549862772267e-01 -3.281714937436528423e-01 -8.250615844449800396e-02 -9.607688552574387975e-02 8.673708445090186347e-02 -2.142020190901677834e-01 -9.253423715959881168e-02 1.636699302217244356e-01 -1.698871758215116656e-01 -2.617469874464815049e-01 2.789435786651119908e-01 7.855245261535213908e-02 1.956237751234178590e-01 -1.245914785881885312e-01 1.922519990369453771e-02 -4.358921759167256466e-02 1.489008035445065110e-02 -2.114997136651945997e-01 -1.392672191603731568e-01 -1.540384696097062134e-01 -7.420697118776692358e-02 2.964467197926603514e-01 6.690062116760293609e-01 -1.562291560027869730e-01 -1.167709280073030674e-02 8.529577192410481290e-02 -2.665254718210268159e-01 7.685536083878665714e-01 -1.417554874736260961e-01 6.918447993351698085e-03 -1.734016980834465482e-01 8.930435130973697344e-01 6.245756993125536199e-02 5.945256674889240478e-02 -9.797860880307780046e-03 6.609530336429772501e-02 1.602238815300727481e-01 -6.735704442225236288e-02 -1.155545509725653952e-01 -3.022133447864965849e-01 -4.746473966797518651e-01 -1.091879415643955548e-01 1.589909051639785686e-01 -4.585227504755302053e-01 2.146675078870225184e-01 4.730390087684668288e-01 1.069318340937182588e-01 7.093022829806672203e-01 2.056515193567436395e-01 -2.612540590452251399e-01 -6.833976239496743210e-02 -5.228592999799552832e-01 8.021312621220979544e-01 -5.710250771189000901e-02 -1.831102768809977632e-01 -1.155431744032433261e-01 4.332696446896144166e-02 1.354563480546427945e-01 5.393414608954720801e-01 2.375010963529966268e-01 2.507270317462041431e-01 2.231344515727271827e-01 6.117815188445829833e-01 4.810401705746513573e-02 -5.938214494898459428e-01 -1.056128329382906295e-01 -2.622511548607595055e-01 -2.212542824868911073e-01 -1.577995863364234364e-01 4.476662955330846794e-01 1.044712946639391460e-01 -1.537283272597505246e-01 1.624959163654282890e-01 8.505344518671347220e-01 5.990522497348284292e-02 -5.288180171935291662e-01 -4.042676958421829725e-01 -2.084980716546483426e-01 -6.711569317673677926e-01 2.043029441716043004e-01 -3.608399392663166200e-02 -3.021665360929938204e-01 3.442913103666421504e-02 -4.372399911955495155e-01 8.936505233461428110e-01 3.882145973897935254e-02 1.248055878662957668e-01 9.310713465722120219e-02 -1.157049304317570582e-01 2.900994570703067654e-01 -3.587509149508086859e-01 1.151586619364034780e-01 -2.069173051573684752e-01 -9.144531790870735755e-01 -1.729630237899117406e-01 -1.252263759956246669e-01 -8.035011333407469092e-01 1.759273286527626712e-02 2.739350131945146316e-01 4.921307440418486445e-01 -1.883847364997568996e-01 -6.864630213699991768e-03 -4.754393012483747183e-02 1.174911179007884568e-02 -5.639188874126738714e-03 3.442161816923468010e-01 -5.598191092600259822e-01 -3.736781821482340615e-01 -1.840419810439528903e-01 -7.488079395158322993e-02 -1.361108054088609742e-01 1.992329361343606053e-01 2.197161542428362757e-01 1.032945083056039520e-01 -7.327455433978993793e-02 8.202563839760448894e-02 1.588027944246358028e-02 -2.452508902403227886e-01 -7.835214238410719012e-02 2.246350457710664245e-02 -4.204971089993018163e-01 -4.144379673115530099e-02 2.176904642103916210e-01 1.093812128957598467e-01 1.069279084486993159e-01 -1.037908133481815071e-01 1.877235436386285594e-01 -8.269153786222327440e-01 -9.774048941230688570e-01 4.455238936899936358e-03 -9.268204780353196670e-02 -1.880283975682195685e-01 2.015102256325535524e-01
4.235335855475479204e-04 -1.988240814419475200e-01 -5.144219885360772071e-02 -1.089862777613441053e-01 -3.281401970075554786e-01 1.181937080798584894e-01 -2.843647358985139095e-01 -1.306023387814983505e-01 -1.849604965434338277e-01 2.374991321800645067e-02 3.157372563127635590e-01 4.016653400777874805e-01 -1.344936784592156154e-01 6.965678968230031298e-01 2.461955980091073137e-01 -2.296078100483409379e-01 7.664787610410941920e-02 -2.113288151866253572e-01 -1.674988722099361449e-01 2.289154997220400889e-02 -1.340129792626511829e-01 5.378235061619111856e-02 -1.918651844279455343e-01 1.309722458746483409e-01 -4.279971737339377524e-01 -9.367118451522536693e-02 4.302775379676435086e-02 -6.000132489077588671e-01 -1.079979906357397476e-02 -5.844340886754855607e-02 1.373217038838226434e-01 -7.358943725927670487e-02 4.618070896790624560e-03 5.892766904054033000e-02 -3.612400843793196481e-01 2.817953989361930422e-01 5.935466340155140519e-02 -3.538908444150611760e-02 -9.515155579980753842e-02 -5.086037361305140170e-01 4.452923946051737941e-03 2.185982860127996114e-02 6.316934271796283140e-02 1.969766102143398478e-01 7.734727107308247973e-02 5.378726214255601795e-02 -8.145415007889383885e-02 -1.947053582681084749e-01 1.030467931474045862e-01 -1.163650457483057926e-01 -2.898945119631947676e-01 3.362206268792143904e-01 1.663779679168394254e-01 -1.149409105489631044e-01 -4.397680098574976992e-01 7.472155160375877347e-01 -2.393810863932556987e-01 -2.350737029234296893e-01 1.648274617687089383e-01 1.590649664791023848e-02 -1.030933182403004911e-01 -1.790031545948055081e-01 1.944228754860179154e-01 -8.661073130614770077e-02 7.049671116312763997e-02 -5.855573584861815256e-02 6.668391277048395516e-01 -1.500743112370200028e-01 -2.738936293061436378e-01 3.130300068958170034e-01 1.680045907847247666e-01 1.936544613239109258e-01 2.564025312226045003e-02 9.847790707022874290e-02 1.020080198956363621e-01 -6.615999466647055210e-03 1.027389722061480652e-02 -3.698327070406660089e-01 -6.078395280329439154e-02 1.555067439453988176e-01 4.745080837815833508e-02 -1.137771754501171184e-01 -1.114613037809136266e-02 5.220696562915438932e-02 6.036596050433936655e-01 -2.538975803159169709e-01 -3.838236885457938508e-01 -1.973585505760613590e-01 1.850074507817053293e-01 -2.075997199136355581e-02 4.277367327571353628e-01 2.183949032153176539e-01 4.818044511840348376e-02 2.199792042046007368e-01 5.112676648329462781e-01 3.113297182600829327e-01 2.858077818398480074e-01 2.454951292718826894e-01 -1.818564873197472953e-01 -2.521717672912522912e-01 1.323877477196847841e-01 -3.260810615134840384e-01 2.601186934061750378e-03 2.634511181408355496e-01 -1.071212371468511920e-01 5.879054948504187916e-02 2.912128862807326080e-01 2.824515708709884887e-01 -1.029560452205921933e-01 -4.727315387333046459e-01 -1.728114705477347135e-01 -1.252513208208045625e-01 -2.466682391380480566e-01 -5.182468298607279672e-02 -3.013399764161873162e-01 -3.983160201481793505e-01 -1.298215966792553855e-01 -1.168858758169010192e-01 -3.855980064960063403e-01 -1.012383289290735289e-01 -4.004219728307828463e-01 -3.583413591752559468e-01 -3.537895045525733806e-02 1.024283852790999760e-01 -8.572128906170771445e-02 -5.726062432292732263e-01 -1.688428829832929190e-01 9.783950855844481681e-03 -7.565729493426159857e-02 -8.683427693081526705e-03 1.021559571353974627e-01 -9.442552454928183903e-02 -6.190248613056179572e-01 -3.232899233673050543e-01 -4.054928163041057187e-01 6.948586047187306214e-01 2.306459910702080562e-01 2.988731018886329749e-01 -3.138715643066373323e-02 4.273168934267371731e-03 4.993313573717709786e-01 -3.681626902837353277e-01 -2.171351960794141722e-01 9.361486016521822773e-01 -4.521173377228090984e-02 9.196766563397686944e-01 8.824137051652520825e-01 -1.728583937121427536e-02 6.649836387445602626e-02 -1.658543111826022431e-01 -1.464448797605065467e-01 -2.676471339708564878e-01 3.645195283578116924e-02 5.887622346449838256e-02 4.468762619778643419e-01 1.946257694937726379e-01 -1.031213169516350114e-01 -2.358967937457412956e-01 -1.076982623049868443e-01 -4.994563441235698731e-01 -2.399270529795097945e-02 2.344799448060455593e-01 -3.375132860616497643e-01 3.420300178743774233e-01 3.526102100146361606e-01 2.098973894603498036e-01 4.131881900668936403e-02 -4.219294555636372568e-01 1.677592477769989932e-01 -7.576437215060041752e-02 1.710036248709734252e-01 -5.666576081315687075e-02 4.916537380443212202e-01 -3.945983820803491415e-01 -8.586954465837937089e-02 1.491329078901665883e-01 5.597671195772150471e-02 2.448878721933872571e-01 7.390078412583229728e-01 -1.578340926118195764e-01 -4.315687262991844686e-01 -1.768994079822283350e-01 1.097971573262461337e-01 -3.276844728959235620e-02 -3.817650835082277427e-01 -6.634953120383229042e-01 5.006884524640533574e-01 1.926556232103717181e-01 -9.507890794645070809e-01 -2.006440294159401172e-01 -9.232068111269710331e-02 9.134368284874813670e-02 4.364766550080905610e-02 4.296763502550342562e-01 1.453524784479232890e-01 -4.093747163920478660e-01 -1.229596992803619615e-01 3.787331840418778350e-01 -2.252975908335270727e-01 -4.528500475567471401e-02 7.099213561605934031e-02 -4.084445356104486891e-01 -5.453270936457891432e-02 6.923383069104647181e-01 2.014043258215546528e-01 6.394651088775844539e-01 2.250593295474639655e-01 -4.669474604252515926e-01 1.611331534896673079e-01 4.708170367193360850e-02 6.740749396276791983e-02 8.692720526657876645e-02 2.139765354896418920e-02 1.240207284117213204e-02 -2.244147918435157041e-01 -3.816550594757265880e-01 1.312163844155155856e-01 -3.890332819780413509e-03 9.416308971299243158e-01 -5.477228950377277528e-01 -1.360166203197438473e-01 -2.857159999971526365e-01 1.793824072382427248e-01 2.759413812417979561e-01 -2.899027979900517873e-02 1.355631898815601311e-01 2.253098089278784619e-02 -1.842504087596282258e-01 2.233185160993236273e-01 1.462027368308297937e-01 -5.606340882539350562e-02 -2.280437993958302906e-02 -6.671522489206904716e-02 4.021648773437507263e-01 3.595587744912034367e-01 7.574930243262918417e-01 -3.053447203950713229e-01 3.536135640874892294e-01 -2.996022837061989019e-01 -1.721937706509194532e-01 -8.495129833517393869e-02 -4.611966468043610656e-01 3.830754029598810728e-01 7.843919865588764306e-01 -1.823917027679376190e-01 4.498540722415298454e-01 2.001912913720308163e-01 4.825902824016323756e-01 6.994361014061961646e-02 -6.481408025012724838e-02 -1.790963009182073851e-01 3.719582724410714913e-01 3.734478413275988534e-02 -3.963833294438621757e-01 4.922530243510919723e-01 3.557891188823570361e-01 9.474625354723498205e-01 5.878080259557866283e-02 7.269377064800441879e-01 4.581819185306283404e-01 -8.679363052978035509e-02 1.734087310940166937e-01 -4.313096933561226531e-02 -4.194367111772810963e-01 -2.091868901102724720e-01 3.341002628004297037e-02 2.766471950739227831e-02 -1.671358067565709149e-01 9.944997914680715478e-01 -4.139222820823231785e-01 1.486063028001846087e-01 -3.746341384753835158e-01 -9.691532107640929428e-02 8.454036066245023129e-01 3.814229060547614791e-01 1.408497986343801578e-01 -9.815677414230217224e-02 1.791915737954023480e-01 1.486156842349235507e-01 -1.719361452925007583e-01 4.219147097248403949e-02 -2.512980444399535718e-01 -1.448593111246576359e-01 5.302857933414331648e-02 1.782970232685640033e-01 3.689984002139393149e-02 4.057341582964002491e-01 -4.195882430484142445e-01 -3.281714937436528423e-01 -3.815732582350790381e-01 -9.607688552574387975e-02 -3.424446164906622906e-03 3.232306765860407105e-01 -6.581913632894896560e-02 -1.896756331120426631e-01 -1.713739082039163544e-02 -2.617469874464815049e-01 -8.282699738149175428e-02 7.855245261535213908e-02 3.316441466168514873e-01 -8.324668135650946377e-02 -3.274781750097145033e-02 -1.137486156284832073e-01 8.657167400480775266e-02 1.611121449293529129e-01 -3.026103142371542321e-01 -1.540384696097062134e-01 3.968606083308535981e-02 1.860452371350183529e-02 1.423915710176476002e-01 -1.562291560027869730e-01 -2.519236302328222710e-01 -1.607100359308291371e-01 -5.360157062188891652e-02 7.685536083878665714e-01 -1.417554874736260961e-01 -1.724261056718953411e-01 -2.580422735246945543e-01 8.930435130973697344e-01 8.173554348095270899e-03 5.945256674889240478e-02 1.957762553344425185e-02 -3.825195039202980984e-01 -1.795977036770361190e-01 -4.834942537056804990e-01 -1.155545509725653952e-01 -1.321436821636921000e-01 1.438444566363285826e-01 -1.091879415643955548e-01 -1.766374424603793236e-01 -4.585227504755302053e-01 1.356384830039148170e-01 5.177793084706119181e-02 1.069318340937182588e-01 7.093022829806672203e-01 2.167126660724136289e-01 -1.190134377510774361e-01 -1.919092042540988460e-02 -5.228592999799552832e-01 8.021312621220979544e-01 -3.201727165998353164e-01 -1.831102768809977632e-01 6.444592162874752603e-03 4.332696446896144166e-02 -3.117227906796066761e-01 5.393414608954720801e-01 2.726664494366570768e-01 -6.944178219973912158e-02 2.231344515727271827e-01 6.117815188445829833e-01 2.109201502483126212e-01 -5.938214494898459428e-01 -1.056128329382906295e-01 3.389638836828184378e-03 1.299056327232923393e-02 5.047999448506308717e-02 7.656994163023073119e-02 -1.200962762250050858e-01 5.728409752670545751e-01 -3.215376129453971776e-01 8.505344518671347220e-01 -5.186108651886436188e-02 -2.442266413044549278e-01 -1.399921436498998903e-02 2.768175480984033654e-01 -6.711569317673677926e-01 2.043029441716043004e-01 -3.608399392663166200e-02 -1.214474217533729472e-01 -2.685931776652059066e-01 -6.124993153880048044e-03 -3.012793907351470346e-01 6.964885098951772990e-02 1.617762902648244849e-01 -3.935818417180855233e-01 -5.038714176561001623e-02 2.473699977270950312e-01 -3.587509149508086859e-01 -3.111350549282688172e-01 4.140743368837761507e-01 -9.144531790870735755e-01 -2.684601350642980000e-01 -1.252263759956246669e-01 -8.035011333407469092e-01 1.759273286527626712e-02 2.739350131945146316e-01 -2.404898012437108393e-02 5.757560715758663905e-02 8.955549519726509200e-02 -4.754393012483747183e-02 1.985487727227265922e-02 -5.639188874126738714e-03 3.442161816923468010e-01 -5.598191092600259822e-01 -3.736781821482340615e-01 -2.060507447793761271e-01 -1.319687091790562317e-01 -1.361108054088609742e-01 1.295216692164384564e-01 2.197161542428362757e-01 2.687112671152440055e-02 7.291715663423539717e-02 6.637324581703203663e-02 1.568359419544728683e-01 -1.659821667466694628e-01 -1.341516309469723278e-01 1.195613902746926749e-01 -4.204971089993018163e-01 -2.188196251892914890e-01 2.176904642103916210e-01 2.002802758955565254e-01 1.192667335703871956e-01 -1.037908133481815071e-01 1.877235436386285594e-01 -8.269153786222327440e-01 -9.774048941230688570e-01 4.455238936899936358e-03 3.566007702250036104e-02 -1.688418977428401135e-01 2.255618877378542941e-01
1.082572908373023585e-01 -1.988240814419475200e-01 1.710921921814012869e-01 -1.812613356264862752e-01 -3.281401970075554786e-01 1.181937080798584894e-01 -3.131409313000378392e-01 3.256354154645361709e-01 3.892300661680451745e-01 -9.267565518563238014e-02 1.831475212286615972e-01 2.516958072233989596e-01 2.514184715735499551e-02 6.965678968230031298e-01 -2.678180514559328484e-01 -2.296078100483409379e-01 2.910529174709592173e-02 -2.113288151866253572e-01 2.887878839497569072e-01 -5.422987307050324002e-02 4.284226352887069433e-01 6.313325510722591627e-01 2.080980582544966206e-01 -4.174051233155675611e-01 2.507163236649086469e-01 -9.367118451522536693e-02 -4.560485181950444389e-01 -5.053938557243505825e-01 1.406984429998547892e-01 -2.833406346129725695e-03 -1.773578455595584691e-01 1.076764811846324665e-01 -4.169804661034059445e-01 -2.630341595113458095e-02 1.643944428777213140e-01 1.025110483362172420e-01 -1.188928624339382067e-01 -2.805303606015139839e-01 -9.515155579980753842e-02 6.272780833777805154e-02 4.452923946051737941e-03 2.185982860127996114e-02 6.316934271796283140e-02 1.969766102143398478e-01 7.734727107308247973e-02 3.059503730241698582e-02 -1.678773373985212869e-01 5.303166126608179626e-02 2.103053701291886235e-01 1.702118599334228877e-01 -2.898945119631947676e-01 2.741472006066843492e-01 -1.605667109478665366e-01 -1.511755731871109731e-01 -1.416157373987151635e-01 7.472155160375877347e-01 -5.061885695440334620e-01 -7.933691754489038961e-02 -1.949308881843598573e-01 1.590649664791023848e-02 -7.923695817570551581e-02 -8.499922515408826762e-03 -1.939121583025722045e-02 1.548606966866392402e-03 -5.493758796207337536e-02 -4.409027085453256500e-01 -5.545739513671002485e-02 1.455617476476793182e-01 3.191816166007205302e-01 2.421763612576801131e-02 -1.623921298513267275e-01 2.510692827853503450e-01 -4.058145388846378654e-01 -8.684981495255350570e-02 -3.701441504871548771e-01 -6.615999466647055210e-03 1.027389722061480652e-02 -3.698327070406660089e-01 -6.078395280329439154e-02 1.555067439453988176e-01 4.745080837815833508e-02 -1.137771754501171184e-01 -6.414045042650761141e-01 -1.112265540674441935e-03 2.045193687178213648e-01 -2.539804111726161051e-01 3.243615427939351425e-01 5.025026622049419966e-01 -1.373389157782199145e-02 -2.217625753351890605e-01 -2.072979975865181235e-01 -1.358059439000671720e-01 1.063449448225683158e-01 3.057349300103154310e-01 5.112676648329462781e-01 3.113297182600829327e-01 -3.465540955697942183e-01 -1.307973203212166487e-02 -1.818564873197472953e-01 3.138971981304483072e-01 -4.526035743093385078e-01 3.047583092754817535e-01 8.712534613456825172e-02 7.655929708000541734e-01 -2.354514663937281038e-01 -7.617264819906346962e-02 -3.969262164854907571e-01 -3.761580055285153601e-01 -1.029560452205921933e-01 -4.727315387333046459e-01 -8.693117229441832405e-02 1.302287078003178389e-01 3.296618289614627328e-01 -5.182468298607279672e-02 -1.040937202712656495e-01 -1.324911091305508160e-01 -1.298215966792553855e-01 -1.168858758169010192e-01 -3.855980064960063403e-01 -1.012383289290735289e-01 -4.004219728307828463e-01 -2.172516764785736298e-01 -3.537895045525733806e-02 1.024283852790999760e-01 -8.572128906170771445e-02 -5.726062432292732263e-01 -1.472509345492616917e-01 -9.079773312371444693e-02 5.445117633077589669e-02 1.460390181053682068e-01 -2.541757932114510066e-01 9.030045888618261352e-02 -3.389950241665443120e-02 2.962646668255930482e-02 3.958440981499443678e-01 6.948586047187306214e-01 2.622233774268724060e-01 2.151914512660109691e-01 -3.133323264112802264e-01 -8.239459414186643682e-02 -3.163706558539570168e-01 -2.309869368649727916e-02 1.991514085244391885e-01 9.361486016521822773e-01 4.858076939957981649e-02 9.196766563397686944e-01 8.824137051652520825e-01 -2.358193946551809805e-01 -1.065075355042978122e-01 2.992617568795594499e-02 -8.093107303744259684e-02 1.040844772374925065e-01 -3.552309874527835865e-01 1.944735912613068385e-01 -2.022209038245603441e-01 -1.714381089872217545e-01 -1.775648622083527417e-01 -4.126596087006506042e-01 -1.076982623049868443e-01 -8.143203206381222081e-02 5.059640621989865972e-01 -7.769406197430064019e-03 -9.769392462008461009e-02 5.311546412983001453e-01 -3.742708851599247932e-01 2.098973894603498036e-01 -2.998490534946057218e-01 2.118102529222275765e-01 -4.506593542956896514e-01 -2.085911962645912165e-01 -2.227000696301510430e-01 -9.221135685331705023e-02 1.589371091929726865e-01 -2.975403914916167070e-01 -5.062819866269517577e-02 -1.692927642013324074e-01 -2.584921125965624067e-01 -7.040884511044027960e-02 7.390078412583229728e-01 3.695558254355605365e-01 -8.203630545920198580e-02 2.911814385312859188e-01 -1.750737513523531741e-01 -3.857425806856438211e-01 -3.817650835082277427e-01 -6.634953120383229042e-01 2.752224273310553970e-01 -5.765121818195011183e-02 -9.507890794645070809e-01 -2.006440294159401172e-01 -9.232068111269710331e-02 1.844338888258592601e-01 4.364766550080905610e-02 4.296763502550342562e-01 1.453524784479232890e-01 -4.093747163920478660e-01 -1.229596992803619615e-01 5.123782436547687225e-02 -3.121032114832127391e-01 2.333124584386847278e-01 2.269327214528539249e-01 -4.084445356104486891e-01 3.584705000201480751e-01 6.923383069104647181e-01 1.989937339639426261e-01 5.099093442059167147e-01 4.336863725339266951e-02 -1.323285294971157100e-01 1.611331534896673079e-01 -1.364273150597801465e-01 -2.149876591880234000e-01 1.572912234997589712e-02 1.120992629723686906e-01 -1.620637058906681249e-01 4.795031545637661319e-01 -2.046025205430636040e-01 -6.287125322574832476e-02 -2.732310696319486532e-01 9.416308971299243158e-01 4.520565633590213905e-01 -3.240117902856247123e-01 1.624996105491008716e-02 1.391024593498530193e-01 5.431490622795678153e-02 -6.211827157934124433e-02 3.437794565555513104e-02 -4.187133915449367527e-01 -1.972103056821551403e-01 1.240882817477983874e-01 1.094892492551230168e-01 -1.722282330122096028e-01 -1.741127479252377874e-01 9.850930798303496327e-02 4.021648773437507263e-01 -1.054482180026314608e-01 7.574930243262918417e-01 -2.189524170981074214e-01 1.116678620932649579e-01 -2.862910533819574277e-01 -1.240771381093699333e-01 5.907364355313642068e-02 5.737222795379623985e-01 3.745185881396217997e-02 7.843919865588764306e-01 4.451478839579237068e-02 7.464332599386624967e-01 -1.915852873000720435e-01 1.587728753961094030e-01 1.987045432917825261e-01 1.621852431212528478e-01 -1.817459320680148982e-01 -1.399785004447245129e-01 -3.328867811714290026e-01 -4.423805466510462303e-02 1.463635112935806060e-01 3.503954632757212972e-01 9.474625354723498205e-01 -1.409910796506639863e-01 7.269377064800441879e-01 -4.806236677422873194e-01 -4.901189549278359148e-02 -3.940825291184307799e-01 -1.170600930771640846e-01 -8.267333435322327118e-02 -5.618044792561165401e-01 3.052132823594235767e-01 -6.232164147640251173e-02 -1.968821113369996767e-01 9.944997914680715478e-01 -3.258791591587752445e-01 -4.110804253984564616e-01 -9.555298379235879769e-02 3.191747232313649763e-01 8.454036066245023129e-01 2.462260854143515920e-01 2.956299219957557803e-02 -2.163578903252282304e-01 2.047736397839187428e-01 -6.634987368903000338e-02 4.480198246810133261e-02 2.592223593128114567e-01 -8.085063829094825127e-01 -2.073454150101262383e-01 -8.762276825886340659e-02 7.232070288413439130e-03 2.865393614777440034e-01 -1.619314223462915148e-01 -2.044280542258580524e-01 4.046391462497973546e-01 -4.860746993955641360e-01 -1.986491130260478466e-01 -1.784280663111641185e-01 -1.445384763767530167e-01 -4.497628948817151973e-02 4.510682921076968749e-02 -2.552368014090020121e-02 6.741110372398027850e-02 -4.089376373638985429e-01 2.923453883386030183e-01 3.430014183265054917e-01 -9.811118109626738859e-02 -1.279588835539673120e-02 6.577922487054327361e-02 5.715890037828024184e-01 -2.611383504065485917e-01 -8.693571179569703489e-02 1.870957995781741701e-03 -7.253284526343570238e-02 2.169614433552552180e-01 -1.162298053134465520e-01 -4.431245262333354251e-01 -2.040756672754532597e-01 2.634748639014188321e-01 -1.081465163001174012e-01 7.685536083878665714e-01 -9.993271219910943026e-02 -6.185215771272462026e-02 3.657968811968369260e-02 8.930435130973697344e-01 -8.900260849299482246e-02 -9.655206763084762944e-02 -3.075399089002101016e-01 -4.656254046137729974e-01 -1.180609149044358902e-01 -2.899762564878063595e-02 1.110214789010567360e-01 2.171285132716408162e-01 1.611411038746108360e-01 2.000574096720653394e-01 -6.094862686394403317e-02 6.415507211147826461e-02 7.402809798399823116e-02 -2.501428719788384436e-01 -7.064608788540215067e-02 7.093022829806672203e-01 -5.781490715405293024e-01 -5.324946380436281768e-01 4.972484472417214030e-01 -5.228592999799552832e-01 8.021312621220979544e-01 8.718719360659889228e-02 1.997121648738263144e-01 -2.365713875470861205e-01 2.619541906412403143e-01 4.617953405813604584e-02 1.255919230549636390e-01 -3.527422129323036781e-01 -3.010980287679011422e-02 5.793455017255709771e-01 6.117815188445829833e-01 4.012544285651145071e-01 1.282812930708946142e-01 8.294647242152300426e-02 -1.116712597784679517e-01 -2.579844037524012812e-01 1.431179752352540746e-01 2.922968112703847043e-01 9.485733271760126151e-01 1.114534205236617920e-01 -2.920327076517454379e-01 8.505344518671347220e-01 1.292227458161925024e-02 -4.035975888943458267e-01 2.113537889722660046e-01 -2.084980716546483426e-01 -3.539741278171041478e-02 1.301826426545933668e-01 3.279294607702018527e-01 -2.698866411533858058e-03 2.334319510689523147e-01 1.458217079938522731e-01 -3.278400901840289872e-01 -1.160620775230147422e-01 5.526408929796979008e-03 1.737035449243809482e-01 -1.242932065586387080e-01 -3.353981600720623568e-01 -2.626622362653823275e-02 -3.652214198335346218e-02 6.438613699217550501e-02 -2.472485264392835780e-01 -5.097786330804757737e-01 1.977780042930097348e-01 -1.377534652314366392e-01 -1.257247878061081847e-01 3.465449762647607179e-01 -1.666507929670572319e-01 6.728554055447788507e-01 1.310534508533004773e-02 2.137648256225177512e-02 -5.742496497304588887e-02 1.982896793883345832e-01 -1.706939388915939548e-01 -2.320280723832237463e-02 1.941596940158330231e-01 -6.194411270654917034e-01 -1.319687091790562317e-01 -1.361108054088609742e-01 -3.918706341746748256e-01 2.186533979783385206e-01 -3.251499339146955436e-01 2.960726730975551391e-01 -1.417263729796977290e-01 -2.320055498194996662e-03 -1.426793891965399685e-01 1.669029557119429408e-02 3.486766399868742594e-01 2.957805848944668470e-01 2.996371435701047359e-01 7.876871326970246584e-03 6.596794848214400098e-01 -1.165266665098674270e-01 3.037401579759033219e-03 3.934229377501115010e-01 1.105567506431671676e-01 -9.774048941230688570e-01 -1.526730319432865746e-01 5.797792826768808500e-02 -5.811876037249513738e-01 1.500428605393937798e-01
2.118879849371448076e-01 -1.988240814419475200e-01 1.710921921814012869e-01 -1.909456685093184058e-01 -3.281401970075554786e-01 1.181937080798584894e-01 4.085642314676569964e-02 -1.306023387814983505e-01 1.360554108419783359e-01 -9.267565518563238014e-02 -1.203343390735531204e-01 -1.962227066746682902e-01 -1.415885565237847421e-01 6.965678968230031298e-01 -2.678180514559328484e-01 -2.296078100483409379e-01 2.910529174709592173e-02 -1.675331240048025250e-01 -4.288076962735816178e-01 2.967966043987694813e-01 6.296953454518046389e-02 -7.203466688972617882e-02 5.635524867963000173e-02 -1.623821819637900551e-02 2.338264861768633018e-01 -9.367118451522536693e-02 -1.155975854431850608e-01 -1.116035437615344253e-02 1.406984429998547892e-01 1.226013470783000464e-01 -1.773578455595584691e-01 2.289135597071615194e-02 -4.169804661034059445e-01 -2.630341595113458095e-02 1.643944428777213140e-01 2.817953989361930422e-01 5.935466340155140519e-02 -3.538908444150611760e-02 7.840246362342316241e-03 1.118800500636203121e-01 1.649793691139588014e-01 2.513756590495296317e-01 6.316934271796283140e-02 -6.681516054177419339e-02 1.192872163892256566e-02 3.059503730241698582e-02 2.144032446131529102e-01 1.134592225693927398e-01 1.030467931474045862e-01 -1.163650457483057926e-01 -2.898945119631947676e-01 3.867562136201274092e-01 1.663779679168394254e-01 -1.014272893876426163e-01 5.383636111059699608e-02 7.472155160375877347e-01 -2.393810863932556987e-01 -2.350737029234296893e-01 1.648274617687089383e-01 1.712355451139587204e-01 -2.721393486543255413e-01 -8.499922515408826762e-03 4.984641994418472222e-01 1.548606966866392402e-03 -4.151229920955737951e-01 -4.409027085453256500e-01 -6.071816384343856621e-01 1.455617476476793182e-01 3.191816166007205302e-01 2.421763612576801131e-02 6.931588549479605899e-02 2.510692827853503450e-01 -4.058145388846378654e-01 -8.684981495255350570e-02 -5.810578924378157623e-02 -6.615999466647055210e-03 1.027389722061480652e-02 -3.698327070406660089e-01 -2.760032745348661720e-01 -6.231476449278070678e-02 2.019650382480982775e-01 -5.701139764736560395e-02 -2.035559017872490273e-01 -8.117047859461505865e-01 -1.907798457989311747e-01 1.363096382162300169e-01 1.480612301404594100e-01 6.263519272883585898e-02 1.850074507817053293e-01 -7.337727491984066264e-01 4.277367327571353628e-01 2.183949032153176539e-01 6.614291166792883592e-02 -1.866632440120274128e-01 5.112676648329462781e-01 3.113297182600829327e-01 4.235880652132287261e-01 3.169293357351380958e-01 -1.818564873197472953e-01 -2.521717672912522912e-01 1.323877477196847841e-01 -1.166272617671441497e-01 8.712534613456825172e-02 7.655929708000541734e-01 9.870144495677361796e-02 -7.617264819906346962e-02 2.268987946472265649e-01 -2.364844756461260133e-01 -1.029560452205921933e-01 -4.727315387333046459e-01 -8.693117229441832405e-02 1.302287078003178389e-01 3.296618289614627328e-01 -5.182468298607279672e-02 -1.040937202712656495e-01 4.423827591764987188e-01 -1.298215966792553855e-01 -1.168858758169010192e-01 -3.855980064960063403e-01 -1.012383289290735289e-01 -4.004219728307828463e-01 -2.172516764785736298e-01 -3.537895045525733806e-02 1.024283852790999760e-01 -8.572128906170771445e-02 -5.726062432292732263e-01 4.843749352372341693e-02 -9.079773312371444693e-02 5.445117633077589669e-02 -1.735851580929991533e-01 -4.262747909590002271e-01 -9.442552454928183903e-02 4.851559331663976016e-01 -7.002515248022682659e-01 -2.772748011779740951e-02 6.948586047187306214e-01 3.113278651662059748e-01 -6.524412660395649821e-01 -5.906671613389699593e-02 -2.557798431934532046e-01 -2.399112373753764516e-01 2.411229125003482021e-02 2.593563846064017575e-01 9.361486016521822773e-01 -1.883699610888390497e-01 9.196766563397686944e-01 8.824137051652520825e-01 2.187736390390523644e-01 -1.065075355042978122e-01 5.154629441396335610e-02 1.752195499853537175e-01 -3.405213657427889062e-01 3.645195283578116924e-02 5.887622346449838256e-02 4.468762619778643419e-01 1.387409988775579472e-01 -2.851488500463281867e-02 -1.096975496857139631e-01 2.905604904771993957e-01 -4.994563441235698731e-01 -2.206988317422084178e-01 1.264719765678960217e-01 1.723145964230802518e-01 5.311546412983001453e-01 3.628461750395562957e-01 1.322712660915378036e-01 -4.178621680641702030e-01 -1.056860166980963522e-01 7.575499090070689050e-03 -6.308029757929926873e-02 -2.414534626072620538e-01 -2.947635758453519272e-03 1.589371091929726865e-01 -1.579413307922432341e-01 -4.211853044296050008e-01 -5.034970157962553872e-01 -8.868764879433194137e-03 6.057799683940657820e-01 7.390078412583229728e-01 3.695558254355605365e-01 -8.203630545920198580e-02 2.911814385312859188e-01 -1.750737513523531741e-01 -2.468287990039974844e-01 -3.817650835082277427e-01 -6.634953120383229042e-01 2.752224273310553970e-01 -5.765121818195011183e-02 -9.507890794645070809e-01 -2.006440294159401172e-01 -9.232068111269710331e-02 9.134368284874813670e-02 -4.807732631121265643e-02 4.296763502550342562e-01 2.397442641252792682e-03 -5.731331878700763882e-01 9.038532971541049510e-02 3.787331840418778350e-01 -2.252975908335270727e-01 -4.528500475567471401e-02 7.099213561605934031e-02 -4.084445356104486891e-01 -1.628330170778581609e-02 6.923383069104647181e-01 2.014043258215546528e-01 6.394651088775844539e-01 2.250593295474639655e-01 -1.323285294971157100e-01 1.611331534896673079e-01 -1.862853996758673247e-01 6.740749396276791983e-02 8.692720526657876645e-02 2.139765354896418920e-02 4.065484632298110856e-01 -1.902282543041078633e-01 -3.816550594757265880e-01 1.380122360328539799e-01 -3.890332819780413509e-03 9.416308971299243158e-01 -8.278953090931384651e-02 -1.971559135013506714e-01 -1.546200775957533302e-01 -5.301331962104602891e-01 1.469695617733512375e-03 9.143332319949921266e-03 1.281145091508403278e-01 -4.860528528969568218e-02 -1.842504087596282258e-01 2.643504691609097623e-01 3.036383790805416982e-01 -3.947268411438848990e-01 5.304488087142967823e-01 -6.671522489206904716e-02 4.021648773437507263e-01 3.430829098981180714e-03 7.574930243262918417e-01 -4.321355557743659093e-01 3.536135640874892294e-01 -2.996022837061989019e-01 1.130824523797487879e-01 -8.495129833517393869e-02 -3.165719752634583162e-01 1.712938221635837699e-01 7.843919865588764306e-01 2.682848196148269748e-01 7.464332599386624967e-01 4.568231485357727929e-04 3.585162422482704447e-01 1.046531559783298454e-01 -3.290441283077858575e-02 4.054563702937506731e-02 3.719582724410714913e-01 1.555591523789094655e-01 -3.963833294438621757e-01 2.623700372344097906e-02 3.557891188823570361e-01 9.474625354723498205e-01 5.878080259557866283e-02 7.269377064800441879e-01 -5.472554877398573270e-01 -2.337750623364120428e-01 7.578854496598493029e-02 -1.788997039739393669e-01 -3.190004845192906946e-01 4.779415910734127748e-01 1.009716283946506948e-01 2.766471950739227831e-02 -9.859008977367009208e-02 9.944997914680715478e-01 2.653454249485702188e-01 -1.011302179114982602e-01 -3.746341384753835158e-01 -9.081660660331802859e-02 8.454036066245023129e-01 -6.025496410542160314e-02 -9.349514303522092618e-02 -9.815677414230217224e-02 -1.805764564516491866e-02 -1.528568554713023719e-02 -6.059491139360626555e-01 1.053099303682994842e-01 -4.816318248843463601e-01 -1.222562782073697979e-01 1.531303685356169286e-01 -4.089370500872263094e-03 1.150112106757258945e-01 -3.689252044437658640e-01 5.300390708825373359e-02 -3.281714937436528423e-01 -8.250615844449800396e-02 -9.607688552574387975e-02 8.673708445090186347e-02 -2.142020190901677834e-01 4.295526448589715995e-01 1.636699302217244356e-01 -1.698871758215116656e-01 -1.982709912144779429e-01 2.789435786651119908e-01 7.855245261535213908e-02 1.956237751234178590e-01 -1.245914785881885312e-01 1.922519990369453771e-02 -4.358921759167256466e-02 1.489008035445065110e-02 -2.114997136651945997e-01 -1.392672191603731568e-01 -1.540384696097062134e-01 4.487830754645851829e-03 2.964467197926603514e-01 -2.513063858640545156e-01 -1.562291560027869730e-01 -1.167709280073030674e-02 8.529577192410481290e-02 -2.665254718210268159e-01 7.685536083878665714e-01 -1.417554874736260961e-01 6.918447993351698085e-03 -1.734016980834465482e-01 8.930435130973697344e-01 6.245756993125536199e-02 5.945256674889240478e-02 -9.797860880307780046e-03 2.681879784752087548e-01 -6.068319137092869492e-02 -5.260321253034778294e-02 -1.155545509725653952e-01 -3.022133447864965849e-01 -4.746473966797518651e-01 -1.091879415643955548e-01 1.589909051639785686e-01 -4.585227504755302053e-01 2.146675078870225184e-01 4.792496747252807388e-01 1.069318340937182588e-01 7.093022829806672203e-01 2.056515193567436395e-01 -2.612540590452251399e-01 3.575748717842638924e-02 -5.228592999799552832e-01 8.021312621220979544e-01 -5.710250771189000901e-02 -1.831102768809977632e-01 -1.155431744032433261e-01 4.332696446896144166e-02 3.231904514982311127e-01 5.393414608954720801e-01 2.375010963529966268e-01 2.507270317462041431e-01 3.683130194114792033e-01 6.117815188445829833e-01 4.810401705746513573e-02 -4.412780386010947131e-01 -1.056128329382906295e-01 -2.889384957757435979e-01 -2.212542824868911073e-01 -1.577995863364234364e-01 4.476662955330846794e-01 1.044712946639391460e-01 -1.300808890876223589e-01 1.624959163654282890e-01 8.505344518671347220e-01 5.990522497348284292e-02 -5.288180171935291662e-01 2.461710623411480364e-02 -2.084980716546483426e-01 -6.711569317673677926e-01 2.043029441716043004e-01 -3.608399392663166200e-02 -3.021665360929938204e-01 3.442913103666421504e-02 -4.372399911955495155e-01 1.176803812658484827e-01 3.882145973897935254e-02 5.471482150638663777e-02 9.310713465722120219e-02 -1.157049304317570582e-01 2.900994570703067654e-01 -3.587509149508086859e-01 1.151586619364034780e-01 -2.069173051573684752e-01 -9.144531790870735755e-01 -1.729630237899117406e-01 -1.252263759956246669e-01 -8.035011333407469092e-01 -1.676065719795063746e-01 2.739350131945146316e-01 4.921307440418486445e-01 -1.883847364997568996e-01 -1.225283580929741045e-01 -4.754393012483747183e-02 3.028714791603370204e-01 -2.191632327278175696e-01 1.804442365090544106e-02 -5.598191092600259822e-01 7.902392781674316691e-02 -1.840419810439528903e-01 -7.488079395158322993e-02 -1.361108054088609742e-01 1.992329361343606053e-01 2.197161542428362757e-01 1.032945083056039520e-01 -7.327455433978993793e-02 8.202563839760448894e-02 -3.304761943005553038e-01 -2.452508902403227886e-01 -7.835214238410719012e-02 1.163813729781022765e-01 -4.204971089993018163e-01 -4.144379673115530099e-02 2.176904642103916210e-01 3.699039407088908216e-02 -1.082998161761383193e-01 3.531027561944129201e-02 1.877235436386285594e-01 -8.269153786222327440e-01 -9.774048941230688570e-01 4.455238936899936358e-03 -9.268204780353196670e-02 -1.880283975682195685e-01 2.023790401054626764e-01
